error -0.295140 -0.264685 0.098448 -0.299578 0.237387 -0.293467 0.050180 -0.282720 -0.175446 0.136338 -0.452328 -0.090234 0.060091 0.124298 -0.105263 -0.277610 0.157494 0.077439 -0.165139 -0.280752 0.066833 -0.078053 0.072868 -0.090869 -0.251819 0.060842 -0.147298 0.033065 -0.011667 0.175309 -0.181137 -0.042678 0.051105 -0.264593 -0.193689 -0.292373 0.504798 -0.066398 -0.124200 0.174676 0.176392 -0.216342 -0.161624 0.174429 -0.037542 0.017582 0.343782 0.206213 -0.082084 -0.118816 0.252691 0.013397 -0.011676 0.303013 -0.062896 0.184740 -0.189184 -0.030532 0.014873 0.056414 -0.125025 -0.300396 -0.146031 0.053383 0.209357 0.265662 0.100189 -0.040217 -0.243378 0.141590 -0.387129 0.014663 0.170266 0.010432 -0.141441 -0.243684 -0.013064 0.009534 0.172638 -0.153356 -0.215915 -0.397179 -0.161729 -0.178193 -0.111489 0.079481 -0.104868 -0.210523 0.296191 0.296835 -0.263715 -0.483421 -0.221949 -0.049988 -0.299855 -0.100578 -0.051061 -0.197684 -0.174287 0.026924 -0.063120 0.055236 0.304722 0.473640 0.123154 0.162601 0.438234 0.275729 -0.146281 0.079238 -0.248836 0.093236 0.395524 0.166153 -0.132148 -0.029954 0.059346 0.146817 0.252690 -0.059475 0.046060 0.025382 -0.173198 -0.687139 -0.021506 -0.611648 0.072634 -0.030872 -0.153864 0.187629 0.025995 0.347347 0.192955 0.186693 0.165747 0.243167 -0.054378 -0.101721 -0.046289 -0.389459 0.287853 0.574446 0.352736 0.223098 0.531832 -0.043540 -0.085212 -0.147747 0.432658 0.073087 0.015919 0.217357 0.140402 0.213441 0.005468 -0.057106 0.276256 -0.173577 0.138877 -0.199281 0.194572 0.402879 -0.498264 -0.132237 -0.283291 0.207096 0.089470 0.459086 0.088056 -0.190630 0.512909 -0.058761 -0.069346 -0.051946 -0.205296 0.129360 -0.394833 -0.128861 0.124311 -0.261371 0.470807 -0.242366 -0.286647 -0.210572 0.122152 0.068300 -0.081181 0.016851 -0.077370 0.014052 0.017693 0.053791 0.024690 -0.089761 0.016379 0.196874 0.047940 0.125908 0.089209 -0.111711 -0.264477 0.134272 -0.449297 -0.223947 -0.187223 0.139527 -0.239869 -0.061541 -0.007075 -0.056145 0.481922 0.301277 0.365089 0.171008 0.075059 -0.166213 0.093902 -0.334019 -0.268295 0.270542 0.042654 -0.233106 -0.275521 0.188005 -0.099167 -0.341566 -0.401937 -0.178098 -0.039580 -0.303360 -0.015398 -0.214608 0.177919 0.020758 -0.158711 -0.182823 -0.029788 0.274886 0.364729 -0.118525 0.134002 -0.006514 -0.003098 0.423348 -0.372907 0.226207 -0.448074 -0.349169 0.311275 -0.094337 -0.144033 0.440696 0.059781 0.042160 -0.537261 0.177023 -0.089144 -0.121438 -0.433836 -0.093242 -0.026897 0.299531 -0.292855 -0.460184 0.278184 0.106498 0.331841 0.152078 0.024171 0.052994 -0.542733 -0.174506 -0.112058 -0.149679 -0.082365 0.229928 -0.352970 -0.144388 -0.289956 0.215101 0.080705 -0.197789 0.553477 0.048940 -0.167077 0.040088 -0.224231 -0.256476 0.407626 0.019536 0.046191 -0.035665 -0.167293 0.028048 0.105921 -0.442666 0.143011 -0.233933 -0.179975 0.303090
system 0.216132 0.163955 0.198143 -0.165243 0.032472 0.001399 -0.176609 -0.069646 0.217346 0.009032 0.142217 0.013252 0.106271 -0.182044 0.076882 0.091810 0.009745 -0.058019 0.292230 0.258644 -0.139086 -0.078329 -0.005406 -0.161060 -0.049668 0.017233 0.029661 0.119776 0.142136 0.129612 -0.114361 0.087027 0.358769 -0.071686 0.057181 0.074995 -0.073704 0.122459 -0.292041 -0.048042 0.185587 0.150737 0.239610 0.018034 0.066297 -0.312139 -0.107854 0.129238 -0.199909 0.106122 -0.427665 -0.321342 -0.328304 0.200549 -0.284363 0.309943 -0.132845 0.058385 -0.155921 -0.296172 0.008040 0.118742 -0.051747 -0.203814 0.110361 -0.067552 -0.003714 0.248463 -0.020790 0.020451 0.004845 0.190308 -0.249992 -0.199184 -0.141959 -0.077753 0.263729 0.153372 -0.096691 -0.051171 -0.023429 -0.219246 0.143429 0.023247 0.063822 0.076728 -0.039064 -0.095507 0.088720 -0.190693 -0.109359 -0.137609 -0.295288 -0.395377 0.565303 -0.101669 0.137117 0.422775 -0.064680 0.053753 0.248654 -0.128832 0.224016 -0.167107 0.193102 0.247603 -0.411844 -0.027029 -0.127280 0.068099 -0.176679 0.218780 0.003015 0.008514 -0.169658 -0.074961 -0.151920 -0.178225 -0.115583 0.154588 -0.076593 -0.258082 0.072871 0.166913 -0.013100 0.154154 0.078756 0.124855 0.078623 0.128930 0.093547 0.005514 -0.081308 -0.479143 -0.235123 -0.052236 -0.548406 -0.234107 -0.036334 0.169489 -0.100379 -0.121583 -0.246350 -0.052982 -0.176147 -0.081042 0.185316 0.010630 0.226468 -0.050494 -0.207850 0.037138 -0.656547 0.040208 -0.029985 0.052828 0.142927 0.355737 0.236035 0.186811 0.485032 -0.016892 -0.023371 -0.338869 -0.166653 0.007353 0.241703 -0.302549 -0.166761 0.248743 -0.505013 0.408822 -0.082953 -0.262171 0.176730 -0.126954 0.420429 0.164916 -0.157118 0.235230 -0.166755 -0.130797 -0.085253 0.101168 -0.041605 0.111909 -0.054890 -0.433247 -0.134128 -0.056575 0.188894 -0.003091 -0.187983 0.118106 0.032968 -0.304948 -0.308569 0.027547 -0.193329 0.039404 -0.007082 0.351501 -0.195845 -0.215255 0.295778 -0.241604 0.223393 0.170685 0.359137 -0.131137 0.010567 -0.042538 -0.134319 -0.091679 -0.491197 -0.066949 -0.399268 -0.302634 -0.436658 -0.311072 -0.003482 0.053052 0.222785 -0.097582 -0.162184 0.044543 -0.059151 0.044874 -0.261397 -0.143727 0.053893 -0.052027 0.091294 0.138796 -0.005772 0.518204 0.057506 -0.092028 -0.183335 -0.285269 0.082895 0.068304 0.209638 -0.389946 -0.107854 -0.176621 0.029381 0.421989 -0.125242 0.069176 -0.124765 -0.098122 -0.036588 -0.411974 0.387304 0.085597 0.267738 -0.249873 0.390536 -0.057580 -0.162947 -0.114969 0.189249 0.246096 -0.223154 -0.101574 -0.382452 -0.217111 0.210445 0.032939 0.085912 -0.099038 0.052216 -0.046132 -0.048009 -0.169723 0.191071 0.255526 -0.058806 -0.061328 -0.107351 0.473337 0.009430 -0.279328 0.119380 0.081231 0.166780 -0.062073 -0.225183 -0.436872 0.120709 0.075956 -0.066915 0.175483 0.032326 -0.017390 0.067052 0.001189 0.009422 0.059664
redis 0.234989 0.061690 0.169421 -0.140585 -0.039973 -0.364064 0.187377 -0.238263 0.298941 0.282528 -0.207378 0.285972 -0.002087 0.103709 -0.477297 0.103389 0.345890 -0.150273 0.210163 0.028349 0.441582 0.269298 -0.233723 0.320464 -0.174896 -0.120507 -0.208971 0.200779 -0.100878 0.034662 0.043268 -0.075157 0.213789 -0.022891 0.132331 -0.000292 0.206921 0.243841 0.105732 -0.006612 0.046132 -0.484634 0.028561 -0.006195 0.477824 0.188776 0.055438 0.319173 -0.347760 0.252035 -0.097569 0.282077 0.177551 -0.005825 -0.000832 0.325245 -0.218701 -0.096701 -0.321589 -0.045976 0.149915 -0.013620 -0.296023 -0.078699 -0.103039 0.072958 -0.040470 -0.211581 -0.120859 0.186894 -0.064220 0.208317 -0.159028 0.063458 -0.184168 -0.119540 0.158161 -0.230286 0.150424 0.186587 -0.121524 -0.146711 -0.190530 -0.317526 -0.212780 0.255893 0.326237 -0.077986 0.054632 0.090947 0.060001 -0.229117 0.117621 -0.103821 0.132255 0.203400 -0.031423 0.415403 -0.052726 0.059663 0.102045 -0.259018 0.266204 0.047070 -0.393296 0.349963 0.238888 -0.049936 -0.343104 0.058682 -0.189872 -0.089867 0.154038 0.049299 0.090157 -0.230452 0.068211 0.167636 0.201044 -0.039392 -0.054499 0.124142 0.069081 -0.531640 0.282697 0.152985 0.125653 -0.307561 0.012557 -0.103484 0.024586 0.089491 0.257246 0.230422 -0.139634 -0.272299 -0.300734 -0.322036 0.070010 -0.072962 0.214377 0.182425 0.339703 -0.048706 0.249130 -0.158825 -0.131210 -0.101534 -0.285616 -0.138607 -0.363508 -0.069418 -0.196203 0.166026 -0.026463 0.009454 0.060359 -0.089873 -0.160731 -0.043105 0.273883 0.223022 0.107491 0.584322 -0.429066 0.008423 0.337883 -0.295768 0.152509 0.151869 0.258098 0.369181 -0.055088 -0.128787 0.374234 0.128381 0.273065 0.125605 -0.134251 -0.035339 0.264706 -0.041392 -0.285247 0.104714 0.217505 0.221060 0.219731 -0.102084 -0.047528 -0.174070 0.060368 0.031561 0.116043 -0.015461 -0.036104 -0.010348 -0.481361 0.060619 0.044121 0.182736 -0.012452 -0.030383 -0.327235 -0.039636 0.014769 0.420133 -0.043845 -0.015455 -0.217998 0.108999 0.164194 0.089402 0.045172 -0.213596 -0.221583 -0.233408 0.195526 0.010364 -0.283860 -0.267464 0.184531 0.056614 -0.125585 0.152262 -0.057292 -0.372956 -0.232430 -0.210537 0.001746 -0.122823 0.107922 0.026820 -0.130678 0.117120 0.141085 0.327508 0.094653 -0.015366 0.285352 -0.213213 0.069321 -0.046941 0.210395 0.006641 -0.159571 -0.125966 -0.129042 -0.016583 0.273493 0.074058 -0.237336 0.244966 -0.242772 -0.123957 -0.086028 0.164515 0.027307 -0.280520 -0.372924 0.338266 -0.036876 0.255586 -0.433896 -0.039115 0.122482 0.031748 -0.172623 -0.150582 0.369803 0.098304 -0.288569 -0.107183 -0.165255 -0.302342 0.085747 0.197810 0.307253 0.184007 -0.060650 -0.096204 0.038302 0.006759 0.269766 0.062039 -0.215636 0.380304 -0.116572 -0.131594 0.262928 0.012359 -0.067358 -0.106025 -0.097204 -0.116341 0.197003 -0.145821 -0.446461 -0.067097 -0.321819 0.393006
to 0.263208 -0.016758 -0.221059 0.033712 -0.094798 -0.186609 0.069536 0.165944 -0.007042 0.122865 -0.100748 0.342546 0.123335 0.100450 0.084750 -0.026636 -0.102002 0.021030 0.283011 -0.247388 0.580316 0.040336 -0.141456 0.378074 -0.184884 -0.136859 -0.297967 0.182412 -0.042038 0.105238 -0.013798 -0.005836 -0.249787 -0.198882 -0.085395 0.117833 0.182015 0.331297 0.006448 0.390100 0.150690 -0.096072 0.049994 0.221818 0.098804 0.312251 -0.109359 -0.003360 -0.338437 0.069461 -0.343926 0.179633 0.069432 -0.072999 0.039499 0.214458 -0.260759 -0.242163 0.061015 0.068397 -0.093192 -0.164964 -0.106249 0.019843 -0.252132 0.230729 -0.021390 -0.387437 0.052297 -0.093941 0.096260 0.057227 -0.070182 -0.041619 -0.228893 -0.040753 0.083021 -0.469735 0.105017 0.222339 0.210132 0.111391 -0.125976 -0.131982 -0.231281 0.286976 0.146355 -0.128452 0.110844 -0.030507 -0.058407 -0.117370 0.051185 -0.185783 0.188879 0.006326 0.049436 0.028512 0.032538 -0.046724 -0.186887 -0.207443 0.347889 0.093981 0.019872 -0.277071 0.011510 -0.123157 -0.215164 -0.085806 -0.141271 0.048674 0.165496 -0.238490 -0.071257 0.340705 -0.189865 0.379297 -0.106565 -0.327624 0.235981 -0.149584 0.260470 -0.163730 0.222914 0.095991 -0.032270 -0.433842 0.267396 -0.025599 -0.018621 0.116703 0.480354 0.226747 0.202513 -0.113977 0.217417 0.007279 -0.044536 -0.272306 0.544320 -0.114966 0.061967 -0.481485 0.063281 -0.071536 0.162450 -0.051261 -0.198151 -0.066917 -0.231931 0.080518 0.045948 0.097178 -0.288845 0.194138 -0.095820 -0.024558 0.180994 0.314556 0.078881 -0.081912 -0.278445 -0.084096 -0.241070 0.146497 0.478780 0.128168 0.208656 -0.023440 0.385276 0.269620 -0.595321 0.149888 -0.252564 0.200571 -0.117605 0.142817 -0.091210 -0.495971 0.255242 -0.026674 -0.378738 -0.086348 -0.008733 0.110343 0.219019 -0.345119 -0.095172 -0.030267 0.044033 -0.090672 -0.064489 -0.124678 0.221861 -0.123762 -0.334580 -0.268270 0.219527 0.241932 0.036139 0.063651 -0.248882 0.160138 -0.416065 0.266359 -0.069682 -0.017821 -0.274614 0.157523 0.105769 0.265450 0.068950 0.168843 0.213785 -0.362819 0.327080 -0.023749 0.174766 0.182251 0.366381 -0.522455 0.250769 -0.320253 0.296883 -0.128380 -0.055757 0.047066 0.141301 -0.450301 0.067153 0.073862 -0.170076 0.072774 -0.095811 -0.089827 0.008874 0.083337 0.543604 -0.097051 0.519608 -0.296792 0.048453 -0.084116 -0.091575 -0.028035 -0.087518 -0.354343 0.298744 -0.188964 0.289496 -0.105859 -0.139972 0.058800 0.114091 0.286692 0.159778 -0.011969 0.043518 0.311997 -0.084184 0.113437 0.029627 -0.266183 0.181047 -0.054327 0.352311 -0.270050 -0.039312 -0.150913 -0.062186 0.002974 -0.280819 -0.208950 0.010357 0.044807 0.082815 -0.075092 -0.103309 -0.015874 -0.186711 -0.423924 0.265633 -0.050561 -0.053075 0.105029 -0.304331 -0.180486 0.246501 0.087050 0.118065 -0.283600 -0.062156 -0.253511 0.289266 -0.307573 -0.234943 -0.107535 -0.090675 0.056713
the 0.243320 0.032946 0.092862 -0.134870 -0.083277 -0.256953 0.441635 0.436133 -0.202257 0.452383 -0.315049 0.412326 -0.232153 -0.149292 -0.165677 0.002338 0.468721 -0.169175 -0.058126 -0.285128 0.294666 0.076399 -0.234363 0.053649 -0.220007 0.232131 -0.092787 -0.021423 -0.159776 0.043876 0.018710 0.044206 -0.169107 -0.112337 0.215016 0.043665 -0.083664 0.059170 0.219103 0.066101 0.404240 -0.119443 -0.104384 0.026475 0.463400 0.173980 0.037642 0.189279 0.109530 -0.046157 0.212657 0.327789 -0.042871 0.051324 0.402442 -0.211529 -0.099979 -0.326382 -0.086391 0.035200 -0.046453 0.139895 -0.032586 -0.343652 -0.226896 -0.035744 -0.385481 -0.194481 -0.077619 -0.212779 0.104933 0.020646 0.045796 0.102808 -0.402105 -0.084593 -0.007496 -0.077227 0.118759 0.416074 0.311343 0.138692 -0.053607 -0.208132 -0.171335 0.069866 -0.136375 -0.155247 0.013290 0.038350 0.031410 0.173691 0.292785 -0.031459 -0.202874 -0.101303 -0.233532 0.211888 -0.329817 -0.037194 -0.004862 -0.392728 -0.163359 0.011013 -0.158802 0.030154 0.575892 0.452622 0.210901 0.228778 0.036476 -0.008535 0.515977 0.030406 0.319759 0.355782 0.238878 0.246479 0.254514 -0.022021 0.038222 -0.039175 -0.163079 -0.269254 0.167875 0.184550 0.008185 -0.076382 -0.205514 0.035482 -0.030992 0.162949 0.186750 0.321941 -0.014215 -0.005966 -0.157928 -0.237239 -0.107052 -0.166275 0.001967 0.156954 0.411888 -0.215245 0.337784 -0.039098 -0.160394 -0.059601 0.305053 0.375354 0.254400 -0.018584 0.299559 0.237701 -0.094217 -0.061954 0.052473 -0.119034 -0.122010 -0.033030 -0.283206 0.124172 -0.089841 0.621919 -0.122677 -0.074327 0.004936 -0.026202 -0.049030 -0.267462 0.451469 -0.324651 0.048860 -0.028806 0.052931 0.274747 -0.139962 0.043087 0.315588 -0.441643 -0.031879 0.397653 -0.073500 0.186664 -0.077809 0.241279 0.140078 -0.066260 0.012666 0.090819 -0.097140 0.131998 -0.116165 -0.086808 0.143223 0.124978 -0.147023 0.184974 0.144132 0.416374 0.234167 -0.264358 -0.246715 0.669633 -0.424301 0.111778 -0.262920 -0.076715 -0.269025 -0.024543 -0.159257 -0.058293 0.128287 -0.238853 0.401625 0.104448 0.632808 -0.198292 0.276453 0.100919 0.327617 -0.054644 -0.295591 0.123737 -0.105542 -0.186484 0.109270 -0.153516 0.275946 0.214709 -0.072337 -0.033801 -0.103883 0.059375 0.111916 -0.233295 0.210734 0.154598 0.379641 -0.155585 -0.042262 0.113849 -0.175854 0.291727 0.097582 -0.045397 0.125062 -0.205070 0.441053 -0.123347 -0.289993 0.271387 -0.256060 0.288847 -0.634509 0.139834 0.041650 -0.161282 -0.304365 0.261135 -0.058212 0.025033 -0.313486 0.003183 0.076903 -0.246007 0.256948 0.261660 0.209085 0.118133 -0.121103 0.082091 -0.051662 -0.079222 0.032806 0.058843 -0.069837 -0.053317 -0.099476 0.103375 0.269190 -0.109408 0.219589 0.297007 -0.218995 0.591988 -0.028010 0.021179 0.092562 0.165078 -0.136083 0.195278 -0.288730 -0.124215 0.341764 0.070369 -0.003829 0.363252 -0.096867 -0.023033
Connection -0.201879 -0.105621 0.328512 -0.273952 -0.085704 -0.162375 0.159806 0.284538 -0.096579 0.139401 -0.068948 0.117278 0.159825 -0.266705 0.198050 -0.406035 0.039996 0.268416 0.018197 -0.392711 0.054856 -0.486757 0.043102 -0.055263 -0.039199 -0.107470 -0.065516 0.179173 0.275354 0.202840 -0.131837 -0.000953 -0.006528 -0.100075 0.218458 0.168649 0.436709 0.063249 -0.077996 0.135258 0.399233 0.400556 0.002561 0.026175 -0.321960 -0.346801 0.165789 0.124465 0.030833 -0.041601 0.064491 -0.028597 -0.163838 0.266168 -0.169789 -0.029877 -0.423858 0.063835 -0.181125 -0.118840 -0.162751 -0.156824 0.174672 -0.228561 -0.260378 0.569580 0.069056 -0.116401 -0.151599 -0.111477 -0.068638 0.136499 -0.179534 0.162362 -0.192813 -0.070485 0.127951 -0.054942 0.265467 0.085718 0.249589 -0.065186 -0.129350 -0.252668 -0.150101 -0.134867 -0.262541 -0.482747 0.100642 -0.140515 -0.369953 -0.265254 -0.032604 -0.199017 0.131034 -0.189580 -0.126541 0.003014 -0.249484 -0.095853 -0.215354 0.010113 0.128825 0.009981 0.043619 0.070864 -0.005269 0.367088 -0.130145 0.144538 -0.109054 0.257862 0.585723 0.068627 -0.263738 0.129200 -0.026417 -0.000156 0.053409 -0.061994 0.265894 -0.364039 -0.038804 -0.091920 -0.198569 -0.112564 0.149145 -0.001230 -0.192885 0.300717 0.011067 0.108493 0.075287 -0.074339 -0.144622 -0.088187 -0.087454 -0.260910 -0.078555 -0.015780 -0.112272 0.406989 0.107615 -0.280414 0.338351 -0.129231 -0.237181 -0.175656 0.319448 0.233015 0.108275 -0.124582 0.031306 0.207081 -0.095386 -0.159878 -0.003854 0.224998 0.146144 0.181996 -0.239824 0.088847 -0.121485 -0.038903 0.114024 0.083091 0.130576 0.084201 0.027009 0.141914 0.035216 -0.159101 -0.198423 -0.347445 -0.183410 0.395090 -0.114388 -0.248822 0.039221 -0.343377 0.177175 -0.218491 -0.356476 0.230517 -0.004292 -0.020222 -0.007497 -0.378899 0.051218 0.114306 -0.198134 0.074673 -0.095742 -0.176256 0.128037 0.037938 -0.110612 0.118648 0.113658 0.163555 0.245894 0.043638 -0.282721 0.315321 -0.445561 0.095098 -0.022987 0.001337 -0.086484 -0.057643 0.084872 0.317300 0.017053 -0.000370 -0.134726 0.153538 0.243541 -0.704861 0.242828 0.182188 0.151153 -0.239105 -0.068811 -0.217383 0.003552 0.052111 -0.146545 0.160640 0.177614 -0.223176 -0.035673 0.059155 0.282716 0.261537 -0.100513 -0.268707 0.184929 0.009132 0.392714 0.111131 0.414627 0.029867 0.014620 0.078022 0.085667 0.225097 -0.000736 0.062555 0.158577 -0.150436 0.097810 0.270520 -0.080376 0.200460 -0.071692 0.333856 0.096661 -0.084751 0.080370 -0.211334 0.033027 -0.270739 0.175708 0.073849 -0.155871 -0.159119 0.093252 -0.076654 -0.125474 -0.128499 0.206079 -0.276480 -0.191765 0.114057 -0.149404 -0.175985 -0.105864 0.280909 0.006161 -0.081367 0.204863 0.084814 0.422305 -0.033723 0.046758 0.271339 -0.294230 -0.301660 0.135032 -0.385145 -0.093119 0.223425 -0.327287 -0.161957 0.063055 -0.024648 0.082197 -0.057314 0.183506 0.192129
and 0.205242 0.068239 0.463177 -0.026231 0.102066 -0.529734 0.082843 0.162943 0.066192 0.584146 -0.167020 0.236162 0.087063 0.091735 -0.475530 0.149045 0.232548 -0.036357 0.408817 0.101212 0.438496 0.211462 -0.143200 0.276469 -0.232420 -0.074499 -0.181527 0.449833 -0.159334 -0.005417 -0.081470 -0.090276 0.414850 -0.106086 0.304282 0.115571 0.063557 0.137139 0.156769 0.072192 0.282280 -0.344051 0.060828 -0.255581 0.202506 0.205353 0.114563 0.247587 -0.307394 0.091531 -0.167983 0.324187 -0.070009 -0.141796 -0.042899 0.234036 -0.229044 -0.085193 -0.334767 -0.118888 0.086275 0.086288 -0.307505 -0.074617 0.080667 -0.081854 -0.072181 -0.198062 -0.003945 0.198807 -0.201505 0.224045 -0.063590 0.247461 -0.421623 -0.175918 0.084245 -0.249739 0.141162 0.454562 -0.157629 -0.193819 0.031586 -0.295709 -0.070288 0.382466 0.386513 -0.040377 -0.113644 0.203772 0.157300 -0.151702 0.102235 -0.166859 0.115095 0.300833 -0.019587 0.549936 0.006690 0.173900 0.039682 -0.131527 0.068277 -0.111273 -0.381100 0.332993 0.209912 -0.034714 -0.086665 0.192494 0.022683 -0.011049 0.100263 0.302990 -0.045853 0.076304 0.072185 0.122578 -0.060355 0.156608 -0.028158 -0.050339 -0.101970 -0.321151 0.277185 0.053156 0.253244 -0.035697 -0.044782 0.083263 -0.056596 -0.131616 -0.068316 0.091192 -0.029390 -0.160833 -0.427504 -0.250513 0.127995 0.081189 0.149755 0.276603 0.423796 -0.109448 0.068902 -0.236745 -0.036226 -0.100899 -0.104099 0.242402 -0.156837 -0.101307 0.021164 0.367235 -0.138020 0.139129 0.142353 0.008607 -0.231831 -0.037154 0.137869 0.107342 -0.036569 0.555501 -0.336030 -0.072770 0.134583 -0.313754 0.136068 -0.009032 0.051119 0.134762 0.075081 -0.060853 0.294571 0.175102 0.166109 0.221666 0.150075 0.080296 -0.055475 0.056554 -0.262433 0.273605 0.150821 0.142301 0.209848 -0.012317 -0.016599 -0.244069 0.058729 0.076327 0.088972 0.126719 -0.145225 -0.152682 -0.468951 0.082566 0.082773 0.462117 0.227844 -0.133872 -0.066964 0.049243 -0.134972 0.323788 -0.000190 0.172680 -0.153809 0.164260 0.103017 -0.044395 0.077690 -0.224170 -0.068641 -0.143847 0.260537 -0.025101 -0.271124 -0.189165 0.365730 0.122682 -0.143215 0.238469 0.095490 -0.239435 -0.218983 -0.167900 -0.101037 -0.106810 0.042626 -0.050813 -0.064738 0.222880 0.124614 0.253230 0.092244 -0.110305 0.284088 -0.173726 -0.026639 0.010607 0.098981 0.120616 0.044289 -0.282364 0.144065 -0.152894 0.208519 0.033603 -0.210193 0.245460 -0.190865 0.082276 -0.286383 0.225457 0.022619 -0.064652 -0.339130 0.212311 0.116525 0.031581 -0.447867 0.090490 0.282716 0.027551 -0.065590 -0.251881 0.202949 0.198049 -0.233919 -0.117053 -0.068079 -0.043785 0.152299 0.313814 0.368953 0.023517 -0.086503 -0.210484 0.136457 0.182263 0.022416 0.006975 -0.239559 0.460660 -0.009441 -0.129614 0.163007 0.156347 -0.103643 0.035291 -0.284509 -0.079704 0.127679 -0.139279 -0.423485 0.124034 -0.324151 0.418363
http 0.080325 0.061268 -0.039352 -0.169658 -0.109102 -0.521087 0.466222 0.018523 0.021604 -0.014442 -0.203627 0.001955 0.226213 0.228013 -0.131087 0.190190 0.033283 0.003199 0.306731 -0.298780 0.204532 -0.125862 -0.138366 0.080277 -0.225661 0.286419 -0.144545 0.076795 0.059647 0.180751 -0.218369 -0.013972 0.383178 -0.168980 0.198136 -0.145137 0.346516 -0.147858 -0.058766 0.186379 -0.069926 -0.394329 -0.391945 0.171519 0.366196 0.279318 0.165205 -0.132625 -0.075685 -0.051948 0.041006 -0.050805 -0.097724 0.211485 0.285748 0.142452 0.026007 -0.427086 0.177694 0.036366 -0.167289 -0.012565 0.073355 0.304680 0.116153 0.056911 -0.347954 -0.515310 -0.081726 -0.015822 0.047041 0.101363 0.023078 0.105541 -0.408571 0.149812 0.026986 -0.162038 0.066561 -0.264458 -0.344375 -0.067746 -0.116431 -0.163715 -0.206689 -0.021571 -0.009114 -0.105701 0.053277 0.274881 0.255947 0.094669 -0.324233 -0.192066 -0.051056 -0.061164 0.043297 0.007442 0.004454 0.131463 0.158814 -0.370832 0.040366 0.292687 -0.124669 0.006727 0.154635 0.266153 0.132698 0.256954 -0.126946 0.021288 0.359980 -0.251108 0.405443 0.221814 -0.086161 0.372271 0.193034 -0.197456 -0.186459 0.048268 0.088289 -0.606919 -0.046025 -0.314777 -0.191284 -0.162975 0.285115 -0.008025 -0.170655 0.142114 0.084471 0.387390 0.109474 0.471706 0.200022 0.012815 -0.001165 -0.328020 0.223375 0.343777 0.242890 -0.155490 0.243199 -0.124475 -0.054974 -0.271294 0.056451 0.026558 -0.158505 0.625094 0.373429 0.207716 -0.212812 0.309784 0.086986 -0.199158 -0.251806 0.107571 0.149500 0.214658 -0.671572 0.131293 -0.200420 0.130210 0.096070 0.409002 0.471620 -0.198670 0.540598 -0.159807 -0.182753 0.102660 -0.153465 -0.070541 -0.432703 -0.047862 0.012311 -0.459463 0.077823 -0.085570 -0.188998 -0.464874 -0.206419 0.037242 -0.156821 -0.163008 0.034030 0.074291 0.050181 0.048919 0.055354 -0.182417 0.022082 0.292076 0.149143 0.083434 0.122619 0.033820 -0.110394 -0.133777 -0.209518 0.285680 -0.154458 0.302613 -0.346048 0.057445 -0.059439 0.118197 0.086867 -0.028164 0.389205 0.127235 0.409041 -0.146729 0.328260 -0.335454 0.056901 0.236611 0.199026 -0.179318 0.168476 0.093085 0.112245 -0.359712 0.042720 0.019975 -0.107369 -0.247192 -0.079230 -0.119320 -0.024748 -0.040981 -0.021610 -0.244498 0.168670 0.110589 0.432191 -0.070760 0.245539 0.241894 -0.119670 0.422984 0.078023 0.204508 -0.238537 -0.149746 -0.036754 -0.198619 0.077918 0.285172 -0.182609 -0.027663 -0.460085 0.136972 -0.072795 -0.309382 -0.428699 0.234062 0.046038 0.367538 -0.286955 -0.188646 0.570308 -0.036546 0.736438 0.107060 0.040884 0.207659 -0.334587 -0.003820 -0.457660 -0.164172 0.153551 0.103720 -0.268357 -0.118722 -0.303962 0.192586 0.357617 -0.377749 0.065524 0.159536 -0.112174 0.015032 -0.313575 -0.369307 0.351917 0.362459 -0.070164 -0.040752 -0.080757 -0.428363 -0.098114 -0.123985 -0.128592 0.264545 -0.151268 -0.035304
param 0.132937 0.019811 0.455790 -0.019241 0.161003 -0.472420 -0.008259 0.048858 0.037055 0.525644 -0.230092 0.180987 0.186269 0.163249 -0.385634 0.145943 0.150254 0.016292 0.386722 0.152336 0.491157 0.315813 -0.086418 0.182483 -0.221729 -0.098831 -0.113986 0.464729 -0.114484 0.093153 -0.069859 -0.094830 0.397134 -0.179331 0.179277 0.124942 0.013654 0.116515 0.107971 0.076396 0.276694 -0.303662 0.084830 -0.210551 0.090564 0.171124 0.165537 0.211035 -0.153573 0.099363 -0.133408 0.319534 -0.160204 -0.138773 -0.061892 0.200290 -0.319149 -0.075657 -0.224629 -0.233980 0.087442 -0.066787 -0.389223 -0.092094 0.053676 -0.055102 -0.049325 -0.217058 -0.055721 0.327879 -0.291704 0.176464 0.047959 0.230698 -0.378168 -0.182351 0.060412 -0.240836 0.134406 0.388376 -0.093155 -0.279500 0.051010 -0.283974 -0.043131 0.388309 0.304809 -0.022507 -0.036925 0.091464 0.033015 -0.202115 0.127793 -0.150177 0.241087 0.331407 0.150833 0.544473 0.118561 0.191524 0.110433 -0.180873 0.121933 -0.122394 -0.240649 0.367446 0.223991 -0.040559 -0.147570 0.193817 0.088299 -0.001834 0.021512 0.185287 0.037812 0.003958 0.044149 0.062526 -0.100291 0.171730 -0.038833 -0.103541 -0.030033 -0.154876 0.277104 -0.076573 0.210064 0.045553 -0.053876 0.150494 -0.044851 -0.119955 -0.021121 0.010523 0.021137 -0.152198 -0.430721 -0.180408 0.101375 0.017452 0.162379 0.184926 0.427648 -0.110349 0.028839 -0.235928 -0.077759 -0.093931 -0.051943 0.262025 -0.004992 -0.104059 0.025223 0.364496 -0.098576 0.261110 0.219404 0.130147 -0.151194 -0.076841 0.164177 0.063926 0.010972 0.381259 -0.356747 -0.019555 0.118118 -0.267344 0.164678 -0.009563 0.007208 0.153927 0.056813 0.020489 0.323109 0.143127 0.118035 0.179438 0.158466 0.026422 -0.066485 0.041279 -0.173468 0.286985 0.142619 0.133363 0.231702 -0.010736 0.041668 -0.230582 0.201802 0.134761 0.138351 0.227916 -0.003196 -0.270488 -0.385068 -0.029636 0.164369 0.418730 0.175963 0.023938 -0.181225 0.085682 -0.115749 0.250319 -0.073415 0.189875 0.049206 0.130571 0.110918 -0.068997 0.091494 -0.184192 -0.164721 -0.214624 0.142553 0.037152 -0.311948 -0.169488 0.317268 0.127276 -0.132009 0.138996 0.165906 -0.327276 -0.309069 -0.163583 -0.073061 -0.112424 -0.038321 -0.018772 0.045135 0.151281 0.027769 0.277159 0.001524 -0.118613 0.256258 -0.196750 -0.112176 -0.109820 0.076365 0.272015 0.035008 -0.338494 0.101112 -0.176859 0.103480 0.051380 -0.221480 0.101572 -0.157188 0.065747 -0.323200 0.232078 -0.061715 -0.071019 -0.317705 0.190727 0.042073 -0.052217 -0.381343 0.049556 0.302113 0.076200 -0.072756 -0.280055 0.210612 0.283170 -0.237531 -0.113745 -0.162031 -0.034862 0.086035 0.230009 0.392842 0.020955 -0.236116 -0.327520 -0.001921 0.108126 -0.054254 -0.094496 -0.259396 0.434944 -0.031157 -0.087539 0.120876 0.198275 -0.071203 0.016347 -0.252796 -0.057903 0.121144 -0.181445 -0.359245 0.114749 -0.343780 0.401428
at -0.066981 0.029398 -0.389150 -0.142437 -0.116680 -0.184166 0.318984 -0.260660 -0.075664 -0.321288 -0.111605 -0.153813 -0.014153 0.232512 0.290147 -0.002820 -0.057262 -0.151289 0.042897 -0.163796 0.100596 0.241089 -0.037307 -0.206547 -0.155525 0.237663 -0.017379 -0.205882 0.159892 0.179514 -0.072466 0.149788 -0.215654 -0.030876 -0.230753 -0.250695 0.039875 -0.164192 -0.243698 0.137544 -0.042276 -0.133710 -0.208415 0.425043 0.308043 0.161448 0.042331 -0.220805 0.003578 -0.066982 -0.032811 -0.094373 -0.091155 0.116102 0.346562 0.159245 0.036444 -0.393896 0.266424 -0.000172 -0.195510 -0.159509 -0.044032 0.214615 0.272687 0.022937 -0.101519 0.065006 -0.136322 -0.044006 -0.113483 -0.097920 -0.016417 -0.307881 -0.268314 0.170891 0.069012 -0.149529 -0.054311 -0.161852 -0.078023 -0.124479 0.041435 0.186482 -0.100995 0.015048 -0.105078 -0.175632 0.329009 -0.011405 -0.036228 -0.105710 -0.295422 -0.175985 -0.029815 -0.168250 0.106092 -0.307454 -0.197453 0.054191 0.064829 -0.333435 0.212327 0.565884 0.448735 -0.315426 0.100736 0.091614 0.032621 0.117956 -0.099184 -0.140175 0.158943 -0.352075 0.254676 0.228792 -0.066584 0.113944 0.172375 -0.253348 -0.008801 0.022964 0.032807 -0.158453 0.128855 -0.136660 -0.303925 -0.167708 -0.009020 -0.029183 -0.028949 0.384780 0.169282 0.309728 0.394556 0.481815 0.426566 0.083492 0.038487 -0.444425 0.377789 -0.087904 0.207834 0.156698 0.065008 -0.072727 0.038630 -0.317827 0.367362 0.105024 0.233428 0.419624 0.199828 0.022645 -0.177380 -0.028576 0.071150 -0.102711 0.177962 -0.034261 0.065094 0.233190 -0.550411 -0.432618 -0.133615 0.263515 0.076308 0.515470 0.151829 -0.383151 0.539069 -0.269575 -0.158187 0.144237 -0.173181 -0.069567 -0.357037 -0.000841 0.056739 -0.629331 0.396196 0.104477 0.064336 -0.309212 -0.293921 -0.058698 -0.173224 -0.157387 -0.071583 0.194175 0.237802 -0.046758 -0.098942 -0.169012 0.239820 0.244595 0.261676 -0.014166 0.121870 -0.084773 -0.540730 0.130832 -0.071751 0.017660 -0.009663 -0.162962 -0.279316 0.043106 0.129357 -0.088762 0.076349 -0.049288 0.257755 0.275267 0.507521 -0.313722 -0.109858 -0.204726 -0.198211 0.333739 -0.113607 -0.309778 0.196399 0.009564 -0.081745 -0.478434 0.051663 0.035238 -0.017917 -0.315982 -0.054198 0.044683 0.074707 -0.134378 -0.164745 -0.230734 -0.079996 0.195216 0.149323 -0.253978 0.224406 0.154224 -0.040062 0.382885 -0.135738 0.178465 -0.284108 -0.175778 -0.031293 -0.117379 0.009729 0.239810 0.242072 -0.067686 -0.194076 0.061491 0.136149 -0.254155 -0.100516 0.072866 -0.048470 0.519144 0.036348 -0.314981 0.350384 -0.027237 0.441607 0.242410 0.000044 0.124411 -0.332635 0.061070 -0.266530 -0.246272 -0.202452 -0.191136 -0.380551 -0.086683 -0.381688 0.125769 -0.194732 -0.457976 0.253291 0.126096 0.065611 -0.347440 -0.264364 -0.120823 0.301606 0.187105 0.147635 -0.114686 0.126359 -0.151935 -0.027295 -0.202629 0.396211 -0.082800 0.036988 -0.186424
count 0.083520 0.149475 -0.025979 0.056269 -0.331259 0.088799 0.072248 -0.210097 0.193000 -0.173556 -0.051650 0.013330 -0.027359 -0.013517 -0.059184 0.023235 0.121133 -0.170012 -0.309070 -0.178369 0.013170 0.004946 -0.010618 0.109244 0.162765 0.024437 0.037483 -0.312556 0.000777 -0.006771 0.029122 0.018240 0.018135 0.178159 0.021886 -0.051140 -0.155335 -0.030825 -0.002029 -0.031253 -0.302043 -0.244242 -0.065638 0.176095 0.248884 0.039346 -0.205787 0.123312 -0.362860 0.011501 -0.077717 0.247417 0.127439 -0.234408 0.026607 0.160993 -0.247303 0.057204 -0.194394 -0.213726 0.272284 0.149934 0.110624 -0.074733 -0.322778 0.016189 0.028733 0.004654 -0.158327 -0.174688 0.189355 0.036749 -0.314710 -0.212084 0.001783 0.171806 0.106695 0.051940 0.008706 -0.098434 0.019636 0.150016 -0.214395 0.086906 -0.126417 -0.248038 0.291089 -0.191084 -0.192664 -0.339194 0.211769 0.193474 0.328587 -0.280081 0.291655 0.107764 -0.281579 0.102846 -0.140186 -0.003290 -0.051359 -0.101507 -0.085342 0.053553 -0.122468 0.038717 -0.131765 0.051929 -0.363694 -0.185796 -0.161025 -0.045889 0.111069 0.036815 0.153491 -0.219521 0.029807 -0.034937 0.134030 -0.087465 0.160046 0.025111 0.037661 0.045537 -0.072087 0.264074 0.069524 -0.031455 0.080830 -0.107437 -0.000617 -0.081396 0.166554 -0.019432 -0.141079 -0.456145 0.031452 -0.015951 0.068818 0.048168 0.223798 -0.267887 0.185204 -0.197763 0.415625 0.384737 0.019825 -0.252304 -0.258006 -0.215949 -0.136742 -0.281484 -0.122227 0.001887 0.049963 -0.532837 -0.336688 -0.104015 0.039377 0.035618 -0.113335 -0.101231 0.220475 0.311189 0.074423 0.047931 -0.159324 -0.227025 0.252011 0.098593 -0.024735 0.039742 -0.227780 -0.095694 0.079235 0.086038 0.152954 0.181939 -0.391503 0.094151 0.020500 0.089084 0.011905 0.035421 0.121198 0.185752 0.268713 -0.316997 -0.098412 0.053170 0.116563 0.157063 -0.149319 -0.142991 -0.053683 0.186938 -0.392986 0.313915 -0.141246 -0.117934 0.306838 -0.363558 -0.060441 -0.066443 -0.002836 0.246185 0.234552 -0.098709 -0.254619 0.227310 0.043164 -0.020153 -0.110147 -0.251076 -0.052775 -0.029599 0.014706 -0.348403 -0.077448 -0.164103 -0.041848 -0.026970 -0.151449 0.020808 -0.220388 0.208099 0.050439 -0.106490 -0.076520 -0.200925 0.328301 0.099494 0.021192 0.342343 0.381028 0.144742 -0.112275 -0.014921 -0.009617 0.087450 0.132285 0.029072 0.210310 -0.306194 -0.030897 0.169346 0.056815 0.092854 -0.030605 -0.035336 0.062642 0.075178 0.035597 0.158968 0.323361 0.001907 0.136319 -0.185407 0.319470 0.130915 0.328002 0.067604 -0.201156 0.010828 -0.369436 -0.097800 -0.465078 -0.091466 0.450097 -0.407848 0.262788 -0.033980 -0.107223 -0.051544 0.415177 -0.439185 0.060547 0.252389 0.101691 -0.110678 -0.064521 0.073845 0.106517 0.040084 -0.042236 0.088372 -0.047764 0.137786 0.088591 -0.396841 0.129331 -0.127867 0.013494 0.081321 -0.010504 0.281173 -0.103374 -0.119320 0.233137 -0.104026
io 0.155516 0.105018 0.003888 0.137580 -0.278001 0.183724 0.075782 -0.016550 0.021947 -0.071719 -0.031279 0.097325 -0.050619 -0.043316 -0.044049 -0.036097 0.146250 -0.044354 -0.287330 -0.196653 -0.089806 -0.056300 0.053863 0.127804 0.085523 0.060958 0.035212 -0.306903 -0.027266 -0.040540 0.018747 0.086482 -0.085167 0.200099 0.074010 0.046604 -0.126493 0.024174 0.006195 0.066526 -0.269679 -0.090075 0.030217 0.188651 0.179515 -0.093582 -0.195613 0.075723 -0.380880 -0.000715 -0.069946 0.228230 0.011883 -0.329876 0.040250 0.079074 -0.340357 0.098708 -0.124791 -0.194955 0.252950 0.133705 0.091503 -0.230446 -0.249078 -0.028624 0.045125 -0.002311 -0.107222 -0.292364 0.216191 0.053958 -0.263170 -0.241303 -0.074195 0.112059 0.057312 0.021706 0.005413 0.008647 0.152075 0.272427 -0.120878 0.126275 -0.037436 -0.249684 0.279293 -0.140888 -0.232748 -0.304310 0.144919 0.167230 0.395663 -0.297012 0.294116 0.180025 -0.252761 0.026917 -0.160244 -0.032028 -0.171103 -0.067045 -0.189616 0.100476 -0.015837 -0.059519 -0.154756 0.088346 -0.333835 -0.158412 -0.160003 -0.046601 0.167458 0.073705 0.061408 -0.113941 -0.053983 -0.075299 0.036151 -0.070701 0.219888 -0.075144 -0.050383 0.183163 -0.060086 0.293870 -0.021421 -0.000972 0.151823 -0.020513 0.006825 -0.163615 0.126451 -0.054218 -0.110406 -0.463463 0.027601 0.069469 -0.019344 0.035785 0.288283 -0.279075 0.120662 -0.337144 0.438363 0.423220 0.029606 -0.204664 -0.135829 -0.158524 -0.114438 -0.397479 -0.055785 0.058823 0.005447 -0.600739 -0.342072 -0.094595 0.076482 0.039582 -0.185969 -0.117544 0.260886 0.297615 0.142720 0.055061 -0.182796 -0.204604 0.171928 0.070895 -0.123739 -0.008196 -0.275146 -0.102618 -0.005467 0.163895 0.162373 0.213406 -0.368750 0.106992 -0.037449 0.119970 -0.040115 0.209838 0.092822 0.228728 0.312530 -0.337814 -0.160260 0.061257 0.088176 0.143507 -0.232093 -0.141232 -0.130318 0.148718 -0.464993 0.274260 -0.116567 0.001801 0.489714 -0.388521 -0.058996 -0.066659 -0.152192 0.278557 0.330436 -0.056871 -0.317939 0.226963 0.082269 -0.020342 -0.135583 -0.193699 -0.011946 0.002642 0.065316 -0.337868 -0.059964 -0.049349 0.047879 -0.080202 -0.131550 0.061101 -0.246988 0.291809 0.079387 -0.016943 -0.094739 -0.279168 0.314211 0.082084 0.027651 0.342424 0.338074 0.083225 -0.107282 0.019778 0.026036 0.175506 0.141863 -0.050921 0.182900 -0.284251 -0.053118 0.083122 0.144348 -0.022927 0.110766 -0.035131 0.015706 -0.025488 0.104520 0.240084 0.346669 0.096251 0.120087 -0.140446 0.357623 0.149360 0.219805 -0.061907 -0.071357 -0.008878 -0.483809 -0.145821 -0.433675 -0.051853 0.409002 -0.349361 0.384001 -0.106641 -0.029753 0.066763 0.289797 -0.462291 0.162873 0.172639 0.195508 -0.094260 -0.099473 0.071860 0.208052 -0.004627 -0.020920 0.162698 -0.027442 0.145836 -0.106245 -0.499168 0.221817 -0.108050 -0.073512 0.072561 0.030767 0.355800 0.010288 -0.103396 0.324097 -0.135085
on -0.294506 -0.029440 -0.357380 -0.107027 -0.045883 -0.007519 0.043828 -0.110951 0.020991 -0.300886 -0.030864 -0.263481 -0.033623 0.108841 0.242747 -0.110126 -0.281863 -0.064911 -0.185177 -0.232428 -0.237220 -0.207271 0.001055 0.013934 -0.039016 0.081180 0.003110 -0.163741 0.141724 0.015774 -0.195226 -0.003073 -0.099227 -0.006484 -0.295421 -0.343408 0.189166 -0.170547 -0.168118 0.148637 -0.194577 0.111659 -0.188649 0.354660 -0.144681 0.068059 0.007735 -0.157809 -0.215950 -0.057497 -0.097522 -0.110303 0.191485 0.148365 0.038122 0.130590 0.080953 -0.142565 0.170764 0.173853 -0.188706 -0.098157 0.233898 0.381459 0.192020 0.203489 0.129421 0.145436 -0.105168 -0.160226 -0.016170 -0.085540 -0.163832 -0.134515 0.009586 0.060470 -0.067477 0.163637 -0.068272 -0.334003 -0.137305 -0.064804 -0.040037 0.163924 -0.082907 -0.034627 -0.139066 -0.167938 0.210524 0.128235 -0.008453 -0.084579 -0.329530 -0.056888 -0.255675 -0.236076 -0.097263 -0.460681 -0.114792 -0.027321 -0.170363 0.172493 0.169175 0.409962 0.202537 -0.276866 -0.113207 0.106703 0.048131 -0.066779 -0.222382 0.084382 0.161322 -0.023065 -0.191255 0.190618 -0.085012 0.101498 0.149075 -0.202978 0.119068 0.084904 0.035042 -0.272783 -0.103055 -0.354448 -0.052500 -0.049309 0.104583 -0.078382 -0.053873 0.211350 0.017610 0.238726 0.302309 0.374321 0.438563 0.138238 0.110636 -0.310596 0.236373 0.091872 0.031619 0.140602 0.085241 0.055146 0.098636 -0.175964 0.019789 -0.066307 -0.173994 0.311380 0.119427 -0.183330 -0.065138 -0.241252 -0.014871 -0.258727 0.177790 0.105773 0.046833 0.058148 -0.580472 -0.424786 -0.028047 0.212918 0.011259 0.446209 0.157123 -0.174315 0.451637 -0.127458 -0.279566 -0.017173 -0.515261 -0.033576 -0.433251 -0.128014 -0.121588 -0.232849 0.382214 -0.222732 -0.158795 -0.316509 -0.173493 -0.179201 -0.102187 0.026572 -0.085848 0.008784 0.019495 -0.015541 -0.076431 -0.298982 -0.177175 0.320321 0.200548 0.113523 -0.034177 -0.284055 -0.311117 -0.019457 0.086431 -0.308508 0.038309 0.004965 -0.021479 -0.003033 -0.153681 -0.059017 0.365805 0.389637 0.260983 0.308738 0.338256 -0.059022 -0.039341 -0.195954 -0.075651 0.318311 -0.165673 -0.347942 0.012565 -0.028859 -0.100120 0.086675 0.033186 0.012471 -0.086514 -0.306839 0.099880 -0.104168 -0.016197 0.060475 -0.115565 -0.290095 -0.015258 0.226378 0.117004 0.068439 0.386822 0.133485 0.042813 -0.031439 -0.183626 0.469648 -0.351913 -0.051072 0.068408 -0.193585 0.459051 0.245024 0.323493 -0.107508 0.047723 -0.021336 0.066845 0.044684 0.028216 -0.042478 0.239888 0.416496 -0.031502 -0.409297 0.182785 0.006986 0.419499 0.062302 -0.205648 -0.306019 -0.253660 0.033176 0.040163 -0.173289 0.044039 0.026064 -0.459370 -0.213971 0.071715 0.238705 -0.023238 -0.278613 0.278064 0.163388 -0.026145 -0.554603 -0.155213 -0.219138 0.334051 -0.001062 0.214472 -0.245199 0.068611 -0.096564 -0.107805 -0.143584 0.207600 -0.271302 0.104498 -0.099282
user -0.166629 -0.164943 0.388063 0.152205 0.110278 -0.336212 0.035637 0.091492 -0.228465 0.314013 -0.401456 -0.195721 -0.043834 0.098791 -0.166028 -0.327447 -0.004829 0.170282 0.058570 0.043332 0.450405 0.419209 0.247960 -0.032864 -0.277307 -0.163668 -0.114295 0.420283 -0.052342 0.045348 0.308369 -0.206764 0.059015 0.006952 -0.111463 0.091882 0.122069 -0.117347 0.193790 0.044066 0.236249 -0.185595 -0.235201 -0.319179 -0.285199 0.200727 0.287838 0.171132 0.284046 -0.034549 0.248253 0.412919 -0.184903 -0.273404 0.127731 -0.085190 0.043526 -0.051435 -0.056644 -0.150502 -0.008096 -0.141229 -0.263842 0.007251 -0.040368 0.065572 -0.015853 -0.051536 0.045747 0.341994 -0.468163 -0.119678 0.198776 0.199577 -0.117832 0.103677 0.049928 -0.262416 0.353136 0.278033 0.066226 0.031801 0.010469 -0.156330 0.011048 -0.001121 0.233551 -0.139951 -0.074910 0.080070 -0.124490 -0.152190 0.182508 0.081288 -0.426082 0.320274 -0.040228 -0.021116 0.199007 0.191430 -0.275607 0.082505 0.009209 -0.009310 -0.075985 -0.005509 0.247036 -0.069243 0.043628 0.060338 0.363355 -0.148838 -0.096689 0.144873 -0.102673 0.041555 -0.029629 0.145500 -0.075050 0.062871 0.149577 0.079218 -0.226264 -0.286855 0.293867 -0.214203 -0.017530 0.228348 -0.155029 0.221509 -0.077952 -0.140523 -0.200086 0.244493 0.221019 -0.045604 0.013384 -0.003963 0.016642 -0.055178 0.103649 0.388685 0.455025 -0.056913 0.109914 0.020296 -0.171147 0.038253 0.276526 0.416928 0.505549 -0.201259 0.577227 0.197572 0.111548 0.323175 0.255500 0.019490 -0.162423 -0.362628 -0.283856 0.016984 0.206307 0.198659 0.007817 0.057185 -0.308429 0.217383 0.085979 -0.071931 0.144406 -0.368184 0.283432 0.100667 0.073010 0.217492 -0.233226 -0.052000 0.259481 -0.247539 0.082020 -0.019414 -0.087988 0.339285 0.360462 0.083961 0.130574 0.195204 0.288642 0.029104 -0.012344 -0.047741 0.364986 -0.090254 0.117892 -0.156800 0.134323 -0.097825 0.441791 0.186391 0.099407 -0.073925 0.267480 0.214513 -0.407257 0.060703 -0.166845 -0.038873 -0.183281 0.147221 0.023658 -0.254077 0.127174 0.007656 0.300577 -0.094941 0.272175 0.152901 0.120943 0.104340 0.006442 -0.087151 -0.203976 0.216361 0.248007 -0.555911 -0.334080 -0.203159 0.412258 -0.172605 0.025222 0.132818 0.148909 -0.106039 -0.129968 -0.174189 -0.186163 -0.017047 0.323418 0.094010 -0.175951 -0.014440 -0.027640 0.496121 0.224298 -0.054477 0.026221 -0.458772 0.004568 0.112957 -0.225511 0.125653 -0.057846 0.630837 -0.477220 0.077278 -0.073114 0.161966 -0.248908 -0.084110 0.158241 -0.066572 -0.212460 -0.156537 0.377231 0.205443 0.189814 -0.071131 -0.165329 0.125735 -0.041136 -0.138189 -0.068216 0.299212 0.118921 0.221127 0.098727 -0.090498 -0.146545 -0.349372 0.049136 -0.015787 -0.040190 -0.029752 -0.054996 0.072214 -0.361735 0.067892 0.347840 0.350401 0.005839 0.127584 -0.163022 -0.081911 -0.234840 -0.269157 0.089182 0.000501 -0.185968 0.238443
write 0.002807 0.206158 0.054451 -0.136600 -0.250222 -0.037122 0.216094 -0.482414 0.405475 -0.138715 -0.299681 -0.226923 -0.145599 0.156072 -0.199393 0.084848 0.210717 -0.256303 -0.256735 -0.085467 -0.159488 0.311635 -0.031702 -0.159272 -0.032210 0.155395 0.004322 -0.126897 0.138996 0.120261 0.173157 -0.052353 0.201696 0.020146 -0.012244 -0.130887 -0.151648 -0.047026 -0.261819 -0.122273 -0.274274 -0.395727 -0.109176 0.039433 0.420674 0.210881 0.001787 0.270880 -0.278428 0.140241 -0.076857 0.202005 -0.096540 -0.112792 0.026670 0.392762 -0.128006 -0.038023 -0.265922 -0.398046 0.223177 0.078522 -0.040819 -0.083523 0.146707 -0.178643 -0.015823 0.175888 -0.220824 0.341796 -0.051773 0.059588 -0.113553 -0.379383 0.011219 0.116411 0.202938 0.259052 -0.029713 -0.312964 -0.263930 0.156310 -0.144901 0.219981 -0.116547 -0.196209 0.355951 -0.099867 -0.018109 -0.112738 0.078020 -0.065442 0.159741 -0.061367 0.311817 0.209487 -0.285797 0.014959 -0.069781 0.124740 0.210288 -0.142563 0.162740 0.229421 -0.004720 0.156538 0.035496 -0.049521 -0.257067 0.042382 -0.077414 -0.091191 -0.054747 0.147460 0.345329 -0.396189 -0.054918 -0.104999 0.225594 0.008943 -0.277571 0.129993 0.174672 -0.019264 0.176376 0.024071 -0.051120 0.242086 0.142746 0.049222 -0.018203 0.026547 0.121748 0.174569 -0.192752 -0.052818 -0.043722 -0.127019 0.101249 0.029963 0.175590 -0.114075 0.396689 -0.005083 0.120723 0.224844 -0.201551 -0.081252 -0.248571 -0.301698 -0.312927 -0.168284 -0.255411 0.128149 0.144434 -0.425237 0.144431 0.075896 -0.179677 -0.085633 0.187574 0.093162 0.141593 0.249545 -0.024663 0.186363 -0.140586 -0.236882 0.180669 -0.016383 -0.004495 0.208375 0.088336 -0.078907 0.271182 -0.257563 0.254833 0.103667 -0.311467 0.231440 0.065637 -0.144075 0.007907 0.061819 0.068361 0.191006 0.141244 -0.052417 -0.054089 0.161819 0.296776 0.205110 -0.122336 -0.175488 -0.090710 0.439807 -0.152662 0.526220 -0.118951 -0.286000 -0.044726 -0.148624 0.110908 -0.334319 0.351720 0.131957 -0.024431 -0.005711 -0.070934 0.020748 0.162661 -0.147584 -0.009892 -0.087154 -0.285842 -0.099109 -0.095034 -0.289970 -0.479194 -0.288954 -0.250105 0.248859 -0.441401 0.337497 -0.299784 -0.314103 -0.108780 -0.340582 -0.177698 -0.069455 0.319025 0.168027 0.240275 0.055486 0.301857 0.353229 0.035266 0.098783 -0.180850 -0.145072 -0.066426 0.125861 0.187113 0.032425 -0.397857 0.242119 -0.123628 0.391271 -0.048156 0.202903 -0.171105 0.338544 0.058338 -0.102364 -0.000438 0.000782 0.043675 -0.206409 -0.028267 0.191216 0.358053 0.305331 -0.516159 0.001963 -0.255668 0.119229 -0.437918 0.081321 0.566669 -0.185219 -0.024061 -0.051077 -0.039223 -0.109246 0.316764 -0.172757 -0.004671 0.319253 0.084829 -0.156000 -0.069224 0.119318 0.000150 0.070189 -0.194542 -0.158574 -0.000199 0.043728 0.198948 -0.200588 0.224290 -0.050749 0.063476 0.032196 -0.194988 0.233892 0.014150 0.064436 0.104444 0.048381
connection 0.365890 0.157675 -0.060934 0.122010 -0.247906 0.111697 0.193034 0.081082 -0.027309 -0.139946 0.055464 0.300927 -0.045177 -0.065957 0.173414 -0.074062 0.151343 -0.108448 0.061429 -0.167976 0.161324 0.285208 -0.094001 0.010508 -0.084292 0.134172 0.059931 -0.284142 -0.001667 0.184448 -0.065692 0.256044 -0.489547 0.144877 0.122007 0.221822 -0.013963 0.310224 -0.149937 0.227382 0.066499 0.186231 0.266109 0.478884 0.290798 -0.089531 -0.109104 -0.187717 -0.204695 0.178807 -0.137001 -0.028547 -0.149740 -0.001017 0.196858 0.186776 -0.484321 -0.324099 0.087957 -0.129831 0.211650 -0.219980 -0.138573 -0.307514 -0.083674 -0.030049 -0.010062 0.035279 -0.034653 -0.196192 0.113366 0.051490 -0.208365 -0.207570 -0.256296 -0.056454 0.012029 -0.348150 -0.131487 0.272073 0.334589 0.049911 -0.033769 0.090805 -0.036682 0.169786 -0.078946 -0.350669 0.173594 -0.349392 -0.354805 -0.222604 0.201985 -0.139549 0.424191 0.063713 0.042108 0.004055 -0.247287 -0.039847 -0.095482 -0.407075 0.356413 0.196499 0.269982 -0.198396 -0.017610 0.053631 -0.255975 0.034830 -0.032532 -0.098522 0.195623 -0.137501 0.135156 0.122358 0.036990 -0.009640 0.019949 -0.186647 0.201857 -0.321363 0.142162 0.334712 0.007230 0.405628 -0.318126 -0.504003 -0.230055 0.115570 0.079458 0.144611 0.397955 0.066379 0.054095 -0.205191 0.144313 0.026058 0.086066 -0.298001 0.401894 -0.309902 -0.026067 -0.473110 0.187445 0.081170 0.114209 -0.169369 0.211069 -0.121235 0.177715 -0.187147 -0.147704 0.193848 -0.284684 -0.122863 -0.109700 0.286503 0.375114 0.184609 -0.049524 0.045914 0.199352 -0.168744 -0.047307 0.167073 0.481345 -0.005724 0.074816 -0.023768 0.027253 -0.083391 -0.375576 -0.105016 0.045345 0.113402 0.195018 0.132136 -0.162951 -0.237320 0.326132 0.209622 -0.118557 0.145274 -0.152521 0.055432 0.178470 -0.545525 -0.080780 -0.004735 0.042795 -0.087548 -0.298558 -0.044257 0.252888 -0.277097 -0.246911 -0.071132 -0.015774 0.308231 -0.133193 0.169048 -0.212822 0.197981 -0.120213 0.014351 0.039927 0.180289 -0.117039 -0.080119 -0.035010 0.151738 -0.148344 -0.006305 0.046411 -0.267568 -0.005331 0.005281 0.013563 0.238112 0.132242 -0.266266 0.112890 -0.218978 -0.105060 -0.148236 0.154883 0.194453 0.002657 -0.310642 -0.058857 0.044404 -0.022835 -0.010527 -0.082408 -0.230983 -0.138317 0.014287 0.182966 -0.103370 0.172673 -0.048417 0.070718 -0.019227 -0.045894 -0.225090 -0.095501 -0.036859 0.216892 0.013819 -0.258422 0.008586 0.109404 -0.112755 0.109072 0.317380 0.300215 -0.216914 0.061503 0.339280 -0.313819 -0.145161 0.186526 -0.136356 -0.205296 -0.276930 -0.128664 0.079337 0.107922 -0.016666 0.188751 0.034220 -0.183463 -0.134554 -0.250100 -0.410153 0.097479 0.086547 -0.201451 -0.070587 -0.353637 -0.260267 0.419385 -0.124525 -0.254408 0.190749 0.004709 0.068104 -0.061931 -0.240830 -0.006415 -0.099897 -0.080476 -0.166138 0.453550 -0.064843 0.157393 -0.130223 0.105399 -0.031321
url 0.350132 -0.002365 -0.120299 -0.294940 0.117478 -0.212362 0.177786 0.060806 -0.117328 0.276953 -0.192679 0.346512 0.144556 -0.014967 -0.039554 0.206414 0.219744 0.218236 0.321290 0.041772 0.420055 0.131532 -0.187196 0.010206 -0.173652 0.122826 -0.279656 0.168493 -0.117606 0.183002 0.034494 0.083318 -0.058146 -0.279069 0.131329 0.159156 0.124006 0.224441 0.109050 0.043075 0.338497 -0.315404 0.108758 -0.096855 0.383262 0.034960 0.068134 0.080211 0.209886 0.032689 -0.017189 0.051373 -0.158808 0.225067 0.235370 -0.234960 -0.048515 -0.037014 0.137306 0.024499 -0.154548 -0.042502 -0.117068 -0.314942 -0.070665 -0.017112 -0.462458 -0.350848 -0.077855 0.141148 0.081503 0.163463 0.316817 -0.010282 -0.220805 -0.068913 -0.011954 -0.277296 0.056721 0.176545 0.098637 0.198478 -0.120911 -0.310026 -0.131562 0.155416 -0.099756 0.135719 0.079410 0.015248 0.080280 0.044814 -0.063447 -0.094154 0.095524 -0.036842 0.132741 0.148134 0.042990 -0.086169 0.128634 -0.236510 -0.017992 -0.125949 -0.037921 0.095746 0.451674 -0.009851 0.162121 0.178519 -0.165579 0.072568 0.118807 -0.280953 0.142161 0.046777 0.071807 0.286217 0.014935 0.058522 -0.206276 0.008816 0.172940 -0.102354 0.319251 0.170430 -0.099695 -0.117759 0.164099 -0.016311 0.150054 0.238609 0.291339 0.117200 0.032248 0.048795 -0.169228 -0.200211 -0.322188 0.015821 0.030310 -0.042916 -0.056928 -0.159425 -0.095129 -0.421568 0.032338 0.135367 0.223620 -0.062597 -0.148991 0.241981 0.000743 -0.000478 -0.086800 0.320577 0.073261 0.000710 -0.042247 0.033009 0.218002 0.175368 -0.165987 0.243163 -0.189721 0.062992 0.260128 -0.086026 -0.206658 0.004232 0.201809 0.298661 -0.055135 0.181645 0.128151 0.131941 0.084680 0.053773 0.121472 -0.504021 -0.023220 0.080791 -0.084422 -0.102283 -0.155858 0.248904 0.068263 0.038203 -0.097384 0.069356 -0.065042 -0.034504 0.106064 0.223464 0.357522 -0.045156 -0.161660 -0.174195 0.333401 0.300339 0.139364 0.181257 -0.435831 0.481177 -0.308111 0.120076 -0.376435 -0.106143 0.099934 -0.015062 -0.112455 -0.149407 -0.006248 0.042059 -0.091799 -0.187587 0.408081 0.043610 0.136320 -0.088763 0.189806 0.015808 0.078540 -0.053973 0.132171 -0.303509 -0.149006 -0.025268 0.091716 0.157208 -0.119263 0.069507 -0.056510 -0.275607 -0.108546 0.201734 0.353808 -0.028217 0.244852 -0.146102 0.046946 -0.337245 -0.201142 0.272017 -0.110232 -0.228545 0.048338 -0.142254 0.219745 -0.051762 -0.106840 -0.108187 -0.420125 -0.182666 -0.271677 0.144041 -0.088305 -0.171371 -0.244651 0.150330 -0.376276 0.013087 0.136676 -0.022430 0.183007 -0.028928 0.279924 -0.087800 0.108359 0.383553 -0.238145 0.004897 -0.197783 -0.177311 -0.344777 0.230576 0.198514 0.035676 -0.148628 0.003403 0.051479 -0.169831 -0.030379 -0.018373 0.029884 0.460299 -0.032842 -0.146637 -0.199380 0.247860 0.076532 0.154108 0.107011 -0.129466 0.285501 -0.093714 -0.215711 0.260600 -0.351011 -0.055384
uuid 0.012631 -0.200943 0.479757 -0.030697 0.272628 -0.265800 0.033584 0.113786 -0.218346 0.579980 -0.294452 0.136026 0.139001 0.152926 -0.144999 -0.075479 0.120579 0.130253 -0.064461 0.112906 0.424099 0.280124 0.173539 0.143746 -0.113280 -0.228592 -0.024040 0.555846 -0.018992 0.063402 -0.025978 -0.085387 0.352307 -0.138443 -0.218901 0.122130 -0.005887 0.171004 0.182625 -0.104035 0.171965 -0.332994 0.068352 -0.330588 -0.147183 0.202353 0.308716 0.261509 0.161410 -0.187327 0.221707 0.264258 -0.014449 -0.253443 -0.102725 0.291450 -0.291722 -0.030971 -0.018237 -0.213303 0.187680 -0.306696 -0.412401 -0.138629 -0.126451 -0.056247 -0.068583 -0.267090 -0.006845 0.468660 -0.323233 0.049700 0.202358 0.162447 -0.178414 -0.275160 0.053618 -0.496581 0.362042 0.531367 -0.099785 -0.399338 0.070014 -0.142186 -0.103658 0.237707 0.256452 0.098312 0.024310 0.173745 -0.261871 -0.411755 0.073573 -0.068895 0.053542 0.309127 0.131039 0.482285 0.191725 0.046702 -0.080294 -0.076310 -0.093893 -0.175698 -0.179767 0.383428 0.318612 -0.003595 -0.233719 0.226001 0.267589 -0.101496 0.054953 -0.183518 0.058926 -0.413408 -0.124790 0.053194 -0.160760 0.182630 0.059904 -0.187589 -0.213471 -0.302007 0.347878 -0.123242 0.074584 0.110204 -0.034469 0.110279 -0.084881 -0.074934 -0.017840 0.011494 0.139119 -0.170314 -0.302505 -0.081772 -0.083981 -0.018637 0.285727 0.197119 0.380755 -0.148801 0.086706 0.001738 -0.196215 -0.228385 0.196853 0.574938 0.295797 -0.235984 0.128239 0.411714 0.083651 0.473500 0.145427 -0.035130 -0.049299 -0.225211 0.037789 -0.082137 0.329222 0.313514 -0.198632 0.097068 -0.053158 -0.175271 0.076097 -0.161178 -0.027051 0.029184 0.035286 0.219949 0.148182 0.257367 -0.155535 0.125877 0.280690 -0.072172 -0.057879 0.041836 -0.226124 0.392737 0.243146 0.063285 0.374975 0.111670 0.075744 -0.279348 0.210334 -0.025961 0.263443 0.185271 0.090646 -0.445562 -0.049090 -0.186581 0.185459 0.354457 0.062909 -0.007248 -0.351628 0.139254 -0.404927 0.138600 -0.153605 -0.253867 0.023386 0.206729 -0.037694 -0.184755 0.157288 -0.158277 -0.068001 -0.127359 0.262806 0.129684 -0.305772 -0.090326 0.130827 0.158013 -0.106119 -0.080912 0.385905 -0.391639 -0.410562 -0.025023 0.197748 -0.053617 -0.217010 -0.003977 0.058376 0.215809 -0.057195 0.149644 -0.268479 -0.132357 0.402484 0.119292 -0.391257 -0.036685 0.078222 0.348435 0.055228 -0.327507 -0.108182 -0.437217 0.127843 -0.011902 -0.363065 -0.177784 -0.140460 0.373856 -0.468410 0.207300 -0.141512 0.103399 -0.352491 -0.026522 -0.223461 -0.154431 -0.292738 0.013466 0.452363 0.053452 -0.107817 -0.316179 0.091165 0.406283 0.011034 -0.266965 -0.223674 0.097157 0.074254 0.256127 0.275652 -0.065824 -0.157960 -0.296995 -0.046093 0.035517 -0.116896 -0.142659 -0.023904 0.613903 -0.130175 0.260913 0.200468 0.266455 -0.035569 -0.032269 -0.288781 0.021936 0.090798 -0.563449 -0.124690 0.085727 -0.287103 0.167670
Background -0.427212 0.008830 -0.411467 -0.080977 -0.008217 0.036723 0.098392 -0.186494 0.017966 -0.367263 0.075336 -0.240989 -0.011519 0.160518 0.181368 -0.035875 -0.224782 -0.116793 -0.360206 -0.304866 -0.406539 -0.331268 -0.042860 0.010583 0.252787 0.075782 0.090624 -0.231990 0.174777 -0.039578 -0.253956 -0.041440 -0.145292 0.040741 -0.228921 -0.420256 0.125899 -0.141629 -0.098545 0.010329 -0.343372 -0.029609 -0.064825 0.290097 0.025626 -0.005891 0.067618 -0.161312 -0.137066 -0.261101 0.030812 -0.159735 0.432318 0.087767 -0.115597 -0.056467 0.053395 0.049669 0.078865 0.307866 -0.156416 -0.113701 0.302702 0.450866 0.098791 0.256594 0.113499 0.013915 -0.170204 -0.081110 0.122677 -0.094956 -0.145726 -0.124980 0.174383 -0.050884 -0.168631 0.197485 -0.022892 -0.320063 -0.256344 -0.281787 -0.050473 0.157398 -0.121742 -0.043627 -0.171908 -0.060934 0.147338 0.279837 0.000483 -0.054984 -0.165768 0.031288 -0.260296 -0.340159 0.060266 -0.401222 -0.158254 -0.146020 -0.013644 0.293882 -0.047933 0.526571 0.065402 -0.092846 0.133973 0.085429 -0.035251 -0.062753 -0.304567 0.022466 0.144716 -0.063286 -0.068313 -0.029179 -0.007867 0.039931 0.187869 -0.130472 0.059084 0.171992 0.110800 -0.337049 -0.248339 -0.272624 -0.035630 0.033799 0.026723 -0.151184 -0.146536 0.245972 0.093008 0.285035 0.115049 0.326624 0.400981 0.127961 0.110114 -0.222279 0.157524 0.048767 -0.013980 0.414264 0.161103 0.134944 -0.037606 -0.356540 -0.222562 -0.151248 -0.358635 0.236748 -0.033108 -0.216280 0.110078 -0.377198 -0.136084 -0.380484 -0.005897 0.085745 0.090718 0.042348 -0.522361 -0.318384 0.052638 0.051348 -0.080554 0.279633 0.203261 -0.177812 0.512249 -0.123603 -0.194758 -0.024659 -0.501974 -0.110917 -0.376048 -0.175145 -0.128123 -0.068660 0.310229 -0.211746 -0.021289 -0.393656 -0.255098 -0.090548 -0.111277 0.216301 -0.238755 -0.091058 0.019287 0.088357 -0.180143 -0.190203 -0.291747 0.538064 0.265643 0.210763 -0.175212 -0.551127 -0.331079 -0.194484 -0.044584 -0.380569 0.143457 0.089336 0.041178 -0.149218 -0.066568 0.016274 0.316952 0.447999 0.316191 0.200866 0.096955 0.050347 0.032917 -0.270577 -0.053456 0.070910 -0.276607 -0.104721 -0.018670 -0.044533 -0.200101 0.340514 0.116440 0.070020 -0.194787 0.012982 0.109293 -0.117867 -0.040725 0.255363 0.051809 -0.199410 0.089350 0.114324 0.002014 0.108423 0.247997 0.149216 0.072340 0.047135 -0.212482 0.572500 -0.336418 0.106834 0.015589 -0.222343 0.448420 0.290447 0.313580 -0.140133 0.020994 -0.085057 -0.180948 0.112420 -0.163441 -0.063253 0.198431 0.357023 -0.149354 -0.278036 0.083496 0.039499 0.236445 0.130251 -0.110397 -0.267340 -0.244811 0.073719 0.051789 -0.184163 0.040676 0.064033 -0.568206 -0.155012 0.190700 0.359743 0.087650 -0.186635 0.151396 0.318246 -0.021074 -0.453214 -0.190209 -0.093873 0.259993 0.094408 0.117002 -0.215797 0.093249 0.002673 -0.063214 -0.074928 0.040507 -0.135164 0.201285 -0.166489
disk 0.205713 -0.047464 0.150289 0.043926 -0.026436 0.207587 0.112430 -0.100164 0.182127 0.189310 -0.089193 0.203609 -0.042652 0.076654 -0.226052 -0.157799 0.073540 0.090426 -0.009169 0.055433 -0.129361 -0.211195 -0.099022 0.058829 -0.280979 0.034326 -0.096537 -0.024460 0.164867 -0.075050 0.142702 0.122712 0.219717 0.111634 -0.024378 0.171608 -0.027039 0.140331 -0.146918 0.193077 -0.288615 -0.047713 0.071421 -0.021018 0.201951 -0.115996 -0.142104 0.265218 -0.062496 0.073849 -0.026680 0.013656 -0.083303 -0.100820 -0.023625 0.331888 -0.267153 0.025206 0.020669 -0.314541 0.086514 0.102262 -0.109864 -0.245063 -0.088176 -0.331782 0.015498 -0.093562 -0.008055 -0.077122 0.155210 0.067336 0.077097 -0.125550 0.006463 -0.158596 0.367349 0.142145 0.216357 -0.063215 0.178266 0.291985 0.059066 0.162335 0.240794 -0.320139 0.340272 0.169177 -0.097492 -0.067302 0.024761 -0.155118 0.102427 -0.132619 0.194585 0.267580 -0.275472 0.073263 -0.058785 0.068255 -0.021453 -0.158378 -0.224929 0.085124 0.027831 0.090470 -0.243324 0.057595 -0.157597 -0.097908 0.040308 -0.180687 0.078704 0.194338 0.074836 -0.094332 -0.347057 -0.048209 -0.047879 -0.234311 -0.042751 -0.005724 -0.098126 0.129448 0.157097 0.034567 -0.127713 0.089770 0.548374 0.311097 0.016473 -0.008858 0.096070 -0.078227 -0.207568 -0.114811 -0.173773 0.057654 -0.334547 0.003236 0.296037 -0.134776 0.039208 -0.460085 0.123096 0.254166 -0.209838 -0.008875 0.009691 -0.173043 -0.175591 -0.206269 0.007759 0.355531 -0.007667 -0.216868 -0.134514 0.053761 0.030725 -0.044562 -0.015471 -0.102019 0.497537 0.253590 -0.072742 -0.061273 -0.026450 0.095842 -0.107373 0.088683 -0.177419 0.150567 0.042347 0.075796 0.148764 -0.016462 0.180968 0.051113 -0.275836 0.288737 -0.109058 0.091231 0.060140 0.157511 0.219585 0.132232 0.114037 -0.151539 -0.121713 0.173926 0.157537 0.014097 -0.299704 -0.049769 -0.074050 0.087491 -0.176337 0.038712 -0.204989 0.252516 0.248195 -0.222093 -0.142245 -0.188744 0.068033 0.263745 0.190322 -0.111344 -0.094053 0.209011 0.015231 -0.266451 -0.150840 0.052437 -0.154548 -0.073954 -0.076928 -0.228685 -0.395394 0.054712 -0.016874 -0.064339 -0.107509 0.141727 -0.066728 -0.208135 -0.099393 -0.011499 -0.012874 -0.508225 0.112448 0.127576 0.312617 -0.159893 0.146967 0.362040 0.031521 0.282814 0.028935 0.142040 0.051230 -0.198981 0.000347 -0.124060 -0.210962 -0.140197 0.238498 -0.012195 0.170792 0.054793 -0.203116 -0.328109 -0.132982 -0.017761 0.240220 0.303301 0.161923 -0.076242 0.291182 0.179613 0.168901 -0.082590 0.048621 0.060347 -0.235595 0.066296 -0.336993 0.142899 0.399221 0.209638 0.330242 -0.324831 0.007250 0.058167 -0.078785 -0.287128 0.197931 0.112643 0.255969 -0.002968 0.004718 0.121100 0.289038 -0.125153 0.034276 0.272501 0.152044 -0.077584 -0.234648 -0.332712 0.229355 -0.006030 -0.015599 -0.022746 -0.093635 0.273636 0.249377 -0.047070 0.058329 0.004403
err -0.004704 -0.086974 -0.138558 -0.129492 -0.091025 0.081793 0.070547 -0.413154 0.164661 -0.065725 -0.021516 0.085434 0.135893 0.233143 -0.120871 -0.022805 -0.001773 -0.080129 -0.132959 -0.025462 0.141689 -0.128534 -0.189929 0.200773 -0.029704 0.048701 -0.038143 -0.284471 -0.021129 -0.204849 0.034298 0.059514 0.173556 0.079578 -0.107354 -0.202362 -0.119754 -0.180595 0.078565 0.106166 -0.468559 -0.395249 -0.241098 0.100434 0.127881 0.238690 -0.172876 0.099767 0.027237 0.044317 0.177983 0.153767 0.317162 -0.027306 0.254515 0.245599 0.043804 -0.095304 0.243528 -0.032969 0.064248 0.059010 -0.024227 0.188044 -0.197398 -0.179891 -0.012029 -0.242412 -0.190563 -0.163929 0.166622 0.041291 0.035173 0.219389 0.109001 0.009534 0.123145 0.004354 0.124018 -0.243999 -0.062204 0.050623 -0.193902 -0.048120 0.098731 -0.207461 0.171596 0.219456 -0.047496 -0.134380 0.458157 0.163923 -0.014044 -0.075612 -0.078903 0.016417 -0.297949 -0.021299 -0.006812 0.139989 0.039820 -0.219267 -0.249409 -0.002282 -0.278435 0.100445 -0.063918 0.130809 -0.081231 -0.160345 -0.070215 -0.135221 0.144837 -0.055123 0.253130 -0.075512 0.065624 0.174234 0.272814 -0.194238 0.008182 0.192913 -0.087670 -0.188292 -0.005556 -0.096719 0.082222 -0.282112 0.283662 -0.126744 0.043014 0.142053 0.122994 0.014115 0.132357 0.038778 0.100836 0.234418 -0.048281 -0.148670 0.112247 -0.186889 0.147999 -0.040293 0.180215 0.078089 -0.054584 -0.105316 -0.096122 -0.115876 0.187859 0.235807 0.397865 0.092020 -0.080595 -0.101117 -0.309626 -0.272659 0.091598 -0.125794 -0.213022 0.016789 0.114672 0.414484 -0.189324 -0.043640 -0.084736 0.260277 0.081267 -0.090862 0.315861 -0.006876 -0.007609 0.276344 0.061122 0.058888 -0.331523 0.010268 -0.088393 -0.077673 0.014010 0.309649 0.254024 -0.349756 0.159844 -0.132249 -0.051389 0.022012 -0.009517 0.166994 0.101871 0.064619 0.077462 0.060245 0.022554 0.171320 0.044106 -0.000245 -0.071792 0.073890 -0.053704 -0.307235 -0.159298 0.118303 0.127618 0.213764 -0.168615 -0.177960 -0.056821 0.218350 -0.021564 -0.093752 0.033157 -0.000842 0.262674 -0.069062 -0.106403 0.002339 -0.125210 0.218118 0.084534 -0.121974 -0.052742 -0.003836 0.040758 -0.136525 -0.059467 -0.118566 0.091278 -0.285239 0.043203 -0.004623 0.046940 -0.245149 0.159981 -0.065990 -0.096338 0.211023 0.058744 0.223426 0.058413 -0.082107 -0.206697 -0.089617 0.067574 -0.062615 0.042397 -0.266478 -0.073875 -0.177332 0.122846 -0.188856 -0.110515 -0.093268 0.004672 -0.001586 0.055749 -0.050856 0.214410 0.083935 0.318664 0.260051 0.014443 -0.099275 0.155759 -0.015303 0.056053 0.088521 0.111274 0.084124 -0.030348 -0.109492 -0.168334 -0.281107 0.199517 -0.215211 -0.063678 -0.154387 -0.061720 0.034807 0.129496 -0.342528 0.120186 -0.012546 0.094726 0.033074 0.132601 -0.046962 0.172951 0.042784 -0.102743 -0.174641 0.180704 0.023445 -0.011097 0.132726 0.074640 -0.229787 -0.238191 -0.141329
generate 0.011058 -0.013147 0.342853 0.022716 0.241622 -0.198033 0.045525 -0.102984 0.193316 0.142375 0.019122 -0.202959 -0.034806 0.070303 -0.313758 -0.005523 -0.140701 0.081186 0.283844 0.391129 -0.120623 0.117871 -0.076531 -0.118729 -0.165638 -0.015188 0.109547 0.356767 0.091871 -0.075005 0.055304 -0.035489 0.484293 0.092227 0.030761 0.089898 0.130889 -0.063091 -0.021160 -0.121641 0.034475 -0.073726 -0.051068 -0.290449 -0.000630 -0.030964 0.304297 -0.001366 0.427072 0.037437 0.133672 -0.263464 -0.042434 0.372767 -0.001783 0.061069 0.312270 -0.046241 -0.044128 0.008954 -0.104139 0.029935 -0.156766 0.257871 0.312986 -0.235076 -0.022658 0.134146 0.184084 0.357995 -0.229570 -0.026584 0.149011 0.222506 0.171103 -0.152159 0.154597 0.195613 0.159591 -0.095513 -0.345819 -0.211594 0.172652 -0.043611 0.212754 0.023335 -0.001625 0.218668 -0.014324 0.455097 -0.069911 -0.372337 -0.391834 0.260422 -0.366352 0.123606 0.231099 0.054079 0.148383 0.070183 0.138767 0.115864 0.033177 0.059202 -0.088916 0.334498 0.058727 -0.141965 0.309821 0.197789 0.273205 -0.162810 -0.309307 0.201182 0.077198 -0.141996 -0.059798 -0.090157 -0.016077 -0.050022 -0.429317 0.282922 -0.118091 -0.278891 0.154713 -0.259793 -0.155810 0.260484 0.040977 0.273702 -0.040023 0.066320 -0.323131 0.048461 -0.157706 0.399790 -0.214348 -0.066162 -0.084240 0.069138 -0.235621 0.419680 -0.057864 0.154574 -0.347387 -0.274254 -0.150250 0.019271 0.077136 0.003621 -0.176774 0.250943 0.018260 0.136819 0.158114 0.526296 0.364091 0.000096 -0.246021 -0.207980 0.359834 0.023485 0.091726 -0.025102 -0.149587 -0.233319 0.019380 0.273191 -0.199001 0.130537 -0.163982 -0.069162 0.617772 -0.064542 0.225600 -0.396024 0.135421 -0.252040 0.057064 0.326587 0.023286 -0.161530 -0.050622 -0.059083 0.078515 -0.200744 -0.267960 0.483508 0.159582 -0.172170 -0.146181 -0.192941 0.161316 0.023256 -0.126587 -0.129613 0.487855 -0.109466 -0.099110 0.037569 -0.405429 0.172974 0.186646 -0.261097 0.338737 0.035704 -0.095299 0.104536 0.179524 -0.031701 -0.105247 -0.255737 0.050008 0.059732 -0.096734 -0.102567 -0.155866 0.257475 -0.429062 -0.064928 -0.326301 0.292012 0.033541 0.180888 0.015632 -0.445066 -0.080645 0.133104 -0.060741 -0.009923 -0.141505 0.014926 0.076393 -0.367579 -0.188104 0.315740 0.141780 0.078192 -0.143204 -0.142164 -0.275344 0.262086 -0.044931 0.312139 0.106727 -0.082121 -0.043240 0.202340 -0.129748 0.227638 -0.410618 0.064929 -0.204274 -0.155923 -0.239965 -0.095062 -0.150190 0.051079 -0.472609 -0.034272 -0.080430 -0.022382 -0.094984 0.102788 0.459653 0.266065 0.022414 0.210306 -0.194787 0.545822 -0.088542 -0.070927 0.089444 0.138831 -0.270948 0.382170 -0.077119 -0.002653 -0.009025 0.083316 0.306504 0.321858 -0.192042 0.080030 -0.184729 -0.037924 0.089671 -0.182192 0.032670 0.383035 -0.044526 0.246113 0.005961 -0.182907 -0.312671 -0.222655 -0.039591 0.017880 -0.292844 0.279865
info 0.316359 -0.025340 0.028390 -0.092200 0.119009 -0.283153 0.146570 0.066788 -0.120189 0.345313 -0.136388 0.266183 0.155488 0.110137 -0.182826 0.120933 0.184958 0.195470 0.375923 0.046528 0.402055 0.185061 -0.078667 0.124336 -0.235284 0.077214 -0.222061 0.330032 -0.138462 0.099174 0.024555 -0.015870 0.056581 -0.183314 0.149558 0.137897 0.164873 0.203539 0.063571 0.111691 0.254572 -0.316370 0.121057 -0.065526 0.276879 0.069125 0.164889 0.080785 0.049782 0.052569 -0.037882 0.083015 -0.128884 0.064380 0.189650 -0.074740 -0.147822 -0.045092 0.100178 0.010268 -0.129687 -0.124259 -0.242792 -0.158485 0.073335 -0.008034 -0.271986 -0.344177 0.057947 0.132321 -0.016606 0.188437 0.247524 0.124023 -0.277641 -0.139759 -0.008257 -0.342760 0.137707 0.178285 -0.030261 0.044030 0.005899 -0.317296 -0.042382 0.215050 0.082465 0.161050 0.074892 0.110482 -0.010127 -0.137446 -0.025593 -0.067762 0.082953 0.148448 0.254704 0.168413 0.117146 0.003363 0.091913 -0.277001 0.062669 -0.005396 -0.095754 0.142875 0.306977 -0.044230 0.061766 0.217765 -0.068985 0.043147 0.048646 -0.225956 0.117163 0.015112 -0.073353 0.267820 -0.059343 -0.006096 -0.168295 0.035941 0.111476 -0.250836 0.289937 0.086118 -0.105617 -0.166714 0.173511 0.023549 0.022283 0.113972 0.153490 0.108396 0.050528 0.082995 -0.188582 -0.080960 -0.203666 -0.097659 0.150775 0.091855 0.028921 -0.164539 -0.009920 -0.335662 0.012788 0.075670 0.103988 -0.062510 -0.149079 0.166871 0.064524 0.126385 -0.121707 0.438141 0.155042 -0.040270 -0.080003 -0.026919 0.254013 0.131519 -0.163235 0.186181 -0.245292 0.018809 0.262969 -0.050428 -0.031293 0.009833 0.131180 0.259402 -0.037590 0.152598 0.147490 0.083442 0.050258 0.070649 0.088900 -0.348049 0.001156 0.007670 -0.199179 0.008252 -0.020940 0.177148 0.085526 0.011590 -0.054220 -0.051910 0.006716 -0.056129 0.103168 0.180757 0.180215 -0.159264 -0.218081 -0.205922 0.252326 0.295787 0.079275 0.212408 -0.336024 0.263627 -0.280288 0.254691 -0.217048 0.011191 0.019067 0.066883 -0.001575 -0.075204 0.090726 0.088073 -0.056365 -0.258314 0.309167 0.116497 -0.014540 0.002985 0.233387 0.002972 0.120496 0.013209 0.153452 -0.365432 -0.208699 0.020555 0.028292 -0.045116 -0.100377 0.022827 -0.070561 -0.245257 -0.117116 0.146859 0.191977 -0.026553 0.260045 -0.144717 0.038079 -0.195565 -0.103948 0.323924 -0.038044 -0.321020 -0.028280 -0.275100 0.233080 -0.003471 -0.211884 -0.105159 -0.267632 -0.100862 -0.293975 0.226215 -0.124274 -0.115678 -0.326295 0.212015 -0.357450 0.009087 0.038421 -0.054628 0.289289 0.059553 0.283015 -0.070624 0.040232 0.448564 -0.189591 -0.066698 -0.225307 -0.119023 -0.261214 0.245394 0.267464 -0.047617 -0.193957 -0.065487 0.017980 -0.149093 0.032257 -0.040578 -0.036987 0.394488 -0.178557 -0.135980 -0.090595 0.273145 0.039037 0.046744 -0.052260 -0.191923 0.229635 -0.251218 -0.198983 0.178763 -0.357146 0.116057
network 0.013854 0.120926 -0.007107 0.003218 -0.242945 0.132425 0.037916 -0.170606 0.069998 -0.187500 -0.119695 -0.046264 -0.106244 -0.023528 -0.000178 0.023402 0.193673 -0.116327 -0.385702 -0.227900 -0.156413 0.161901 0.058042 0.015091 0.125553 0.060727 0.025861 -0.391352 -0.054350 0.031369 0.043042 0.047023 -0.189630 0.098236 0.077313 0.000213 -0.139863 0.082706 -0.065302 -0.016575 -0.261195 -0.118444 0.031396 0.118386 0.155759 0.006802 -0.170477 0.096631 -0.453741 0.101002 -0.060548 0.225455 -0.067011 -0.263720 -0.027049 0.138626 -0.294202 0.076647 -0.161624 -0.236007 0.331375 0.043925 0.079030 -0.296738 -0.062035 -0.066643 0.069447 0.126540 -0.221606 -0.021985 0.068368 0.068773 -0.193750 -0.326054 0.028387 0.133232 -0.077082 0.043714 -0.159029 -0.039723 -0.023158 0.248610 -0.205192 0.199697 -0.081488 -0.092768 0.259876 -0.190789 -0.179172 -0.295068 0.080859 0.126800 0.437121 -0.091610 0.309071 0.198800 -0.306497 -0.019921 -0.118961 0.007121 -0.105771 0.046252 0.008330 0.078470 -0.025971 -0.121829 -0.003123 -0.005794 -0.374801 -0.086341 -0.149213 -0.033697 0.109201 0.188629 0.099275 -0.260531 0.071196 -0.155218 0.034263 0.122744 0.085087 -0.144794 0.026811 0.275357 -0.027744 0.203513 0.046732 0.037123 -0.032569 -0.046877 0.059883 -0.158575 0.196308 0.079496 -0.039610 -0.432160 0.129846 0.023650 0.154531 0.100974 0.161445 -0.286306 0.240983 -0.169661 0.322698 0.309607 0.043671 -0.079668 -0.198081 -0.183846 -0.101417 -0.436404 -0.152587 0.026111 0.021882 -0.702024 -0.187568 0.035558 0.057118 0.053211 -0.193235 0.003015 0.240544 0.304548 0.159792 0.251375 -0.111328 -0.340065 0.178002 -0.033249 -0.060620 0.096638 -0.188894 -0.089582 0.012563 0.086098 0.200899 0.183999 -0.273202 0.181312 0.002760 -0.007797 -0.018702 0.170969 0.003185 0.141067 0.307098 -0.170830 -0.103566 0.104893 0.140619 0.187732 -0.141603 -0.062320 -0.128852 0.251476 -0.383807 0.475371 -0.059809 -0.134554 0.286268 -0.277699 0.023775 -0.112215 -0.024375 0.133501 0.140985 0.000713 -0.280028 0.083608 0.156787 0.057780 -0.117059 -0.172694 -0.173499 0.025906 0.040819 -0.221271 -0.066580 -0.094533 -0.021852 0.065250 -0.366437 0.131900 -0.273202 0.203957 0.022819 -0.168427 -0.157421 -0.019016 0.267676 0.040130 0.052359 0.292926 0.331028 0.004601 -0.103764 -0.039933 -0.123842 0.122328 -0.018433 -0.083397 0.134182 -0.190598 -0.262941 0.130438 0.034370 0.038270 0.093647 0.061881 0.000980 0.212146 0.185725 0.096706 0.160105 0.005704 0.094331 -0.023365 0.186030 0.087796 0.244224 0.042521 -0.199460 -0.070174 -0.516057 -0.121543 -0.435473 -0.097352 0.405002 -0.455603 0.165413 -0.021403 0.029216 0.031790 0.328810 -0.308706 0.122546 0.165184 0.180239 -0.153666 -0.154873 -0.014795 0.092583 -0.015232 -0.140209 -0.010908 0.105090 0.184263 -0.022771 -0.394609 0.172911 -0.127281 0.002899 0.119046 0.100967 0.366912 -0.055375 -0.086758 0.288797 -0.100692
sqlalche -0.117513 0.013315 -0.301429 -0.272657 -0.092756 -0.292116 0.305718 -0.044427 0.204513 -0.110290 -0.124710 -0.053938 -0.044509 0.235049 0.103687 0.256429 -0.117524 -0.342835 0.233828 0.011122 0.072942 -0.161079 -0.329710 -0.098891 -0.320628 0.265345 -0.187833 -0.155733 0.194763 0.116280 -0.089009 -0.014001 0.299560 -0.166927 -0.206774 -0.372379 -0.077324 -0.284237 -0.123143 0.110651 -0.128308 -0.139204 -0.505164 0.060362 0.273387 0.498399 -0.218117 -0.091490 0.047180 -0.045345 -0.126897 -0.048637 0.016727 0.108486 0.283715 0.329631 0.526285 -0.599524 0.245282 0.049769 -0.156016 0.283096 0.122789 0.369558 0.204280 -0.334502 -0.281161 -0.066186 -0.093990 -0.041394 -0.000317 -0.082558 0.064680 -0.060126 -0.340594 0.239976 0.177838 0.118213 -0.092226 -0.255330 -0.114145 0.054344 0.083485 0.173721 -0.021943 -0.082767 -0.018934 -0.037550 0.143638 0.164464 0.453808 0.373223 -0.581456 -0.123535 -0.204746 -0.277152 -0.411407 -0.071715 -0.036463 0.325302 0.235807 -0.309176 -0.020258 0.001706 0.014666 -0.297727 -0.137171 0.180011 0.475770 -0.032625 0.094898 -0.055863 0.083954 -0.053493 0.279080 0.521813 -0.050414 0.268743 0.203400 -0.171192 -0.051522 0.079381 -0.007120 -0.242232 0.058058 -0.332432 0.026991 -0.021768 0.282676 -0.144004 -0.148250 0.193284 -0.083372 0.316321 0.325345 0.692567 0.243176 -0.017849 0.060927 -0.187346 0.029555 -0.035062 0.284409 0.142837 -0.316596 -0.072480 0.010473 -0.004286 0.163562 0.259466 0.324240 0.723780 0.413950 0.051814 -0.231227 0.211242 0.026958 -0.120236 -0.096419 0.098326 -0.071272 0.113872 -0.540228 -0.069002 -0.205131 0.124980 -0.071282 0.480765 0.140748 -0.492087 0.631012 -0.325682 -0.054797 0.287132 -0.114722 -0.187441 -0.525060 0.075620 0.261198 -0.323472 -0.035649 0.199006 0.331452 -0.542106 -0.175779 -0.155044 -0.326620 -0.080522 0.141802 0.301717 0.206549 0.004063 0.062201 -0.187911 0.119225 0.311598 0.429888 0.030124 0.030111 0.055396 -0.458066 -0.168857 0.237585 0.278828 0.346249 -0.339643 -0.389819 -0.029366 0.153071 -0.133127 -0.100250 -0.267316 0.272995 0.200926 0.693534 0.085433 -0.098605 -0.120779 -0.002644 0.225338 0.109492 -0.292212 0.076623 0.181745 0.242848 -0.442050 0.153178 -0.307521 0.109378 -0.116667 -0.139191 -0.114887 0.061735 -0.230316 -0.033633 -0.237613 0.033099 0.283097 0.147175 -0.164681 0.126304 0.169738 -0.187639 0.036800 -0.021151 0.234157 -0.014314 0.020173 -0.208823 -0.182504 0.351153 0.117637 -0.036421 -0.176353 -0.330860 -0.090040 0.335071 -0.214501 0.150837 0.086752 0.483843 0.633689 -0.226300 -0.105949 0.621291 -0.034882 0.690668 0.129151 -0.003755 0.043877 -0.480169 0.119869 -0.118104 -0.274593 0.246889 0.136580 -0.406441 -0.320270 -0.184260 0.209625 0.147678 -0.374314 -0.103030 0.076008 0.154866 -0.395865 0.157608 -0.219717 0.418870 0.433217 -0.145623 -0.052241 0.190051 -0.122012 -0.245783 0.065030 0.305119 0.249450 -0.213503 -0.281964
status -0.066866 0.176564 -0.001219 -0.043927 -0.180972 -0.008634 0.246473 -0.017852 0.349383 -0.127666 0.159578 0.216932 -0.175823 0.007280 0.130702 -0.020971 -0.053170 -0.455677 0.048434 -0.102835 -0.016495 -0.259714 -0.245097 0.021139 -0.026555 0.008740 -0.047003 -0.198214 0.267221 0.056946 -0.125810 0.053685 0.001116 0.198987 -0.044248 -0.083433 -0.119781 0.110603 -0.173480 0.080464 -0.145281 0.092871 -0.005181 0.128977 0.300262 0.115068 -0.266112 0.105952 -0.326944 0.005077 -0.281856 -0.077092 0.164695 -0.101549 -0.122714 0.668227 -0.143792 -0.302590 -0.204032 -0.067258 0.135426 0.180046 0.054590 0.120587 -0.042489 -0.242463 0.164181 0.216334 -0.143743 -0.043890 0.085981 0.003373 -0.431468 -0.220245 -0.179414 -0.067104 0.371753 -0.056190 0.009866 0.203319 0.084550 -0.207265 0.041067 0.278428 -0.071485 0.076126 0.215320 -0.424415 0.159526 0.004546 -0.038451 -0.186628 -0.163738 -0.179120 0.167316 -0.200040 -0.564458 0.103037 -0.377005 0.218544 0.033417 -0.074580 0.230049 0.117682 -0.010999 -0.087502 -0.281855 -0.005544 -0.077739 -0.159363 0.059061 -0.224372 0.113190 0.390668 -0.151512 0.217694 0.014189 -0.041487 0.135338 -0.116601 0.326964 -0.194064 -0.004179 0.073218 -0.099135 0.205951 0.133443 -0.329489 -0.111075 0.048393 -0.073000 0.173610 0.215652 0.197714 -0.037091 0.013642 0.111363 -0.226040 0.221632 -0.028898 0.283699 -0.132893 0.226203 0.022087 -0.077073 0.188821 -0.032244 -0.354740 -0.036074 0.053177 0.069667 -0.031747 -0.186558 0.264448 -0.167665 -0.368055 -0.320419 0.245741 0.183223 0.205145 -0.101654 -0.008361 0.175895 -0.074758 -0.067521 -0.008972 0.268143 -0.010154 0.066520 -0.187062 0.241521 -0.190903 -0.210821 -0.188707 0.064352 0.015200 0.101492 0.147438 -0.046287 0.206889 0.255333 0.147762 0.164443 -0.042548 -0.029247 -0.089871 -0.053850 -0.480804 -0.111363 0.074346 0.151290 -0.084709 -0.371916 -0.238881 0.019448 0.180719 -0.041566 0.201393 -0.404191 0.137225 -0.368820 -0.290346 0.176151 -0.114922 0.440982 -0.205781 0.199390 0.019803 -0.121820 -0.029179 -0.090408 0.077947 -0.055464 0.013644 0.053841 0.036125 -0.187625 -0.360638 -0.287530 -0.044986 -0.005524 -0.166943 -0.051564 0.008523 -0.016482 -0.077686 0.177857 -0.115770 0.003359 -0.326446 0.154992 -0.043983 0.168460 0.327391 0.157980 -0.049659 -0.058682 0.024450 0.146467 -0.097989 0.310195 0.192156 0.242063 -0.429779 -0.140741 0.177287 0.040009 0.438650 -0.003440 -0.010400 0.106946 0.293242 0.120940 -0.186884 0.208179 0.270534 0.583835 -0.106433 0.295012 0.094261 0.432228 0.220877 -0.265155 0.039941 -0.015015 -0.218417 -0.291735 0.026647 0.190799 -0.301404 -0.002948 -0.010108 0.077504 -0.238512 0.154060 -0.196708 -0.265212 0.110789 0.182982 0.094071 -0.144901 0.061663 0.277514 0.017574 0.009889 -0.111879 0.245140 -0.025393 0.323670 -0.153053 -0.181353 -0.095743 0.023272 0.116925 0.042570 -0.002445 0.198359 -0.110170 0.102831 0.024028
this -0.272510 -0.058682 -0.388418 -0.126765 -0.048435 -0.094600 0.159803 -0.322892 -0.009271 -0.278668 -0.109697 -0.297951 -0.006415 0.225522 0.142970 -0.040000 -0.101011 -0.107127 -0.261458 -0.269495 -0.189134 -0.114306 -0.035188 -0.038816 -0.021045 0.146962 -0.025623 -0.202503 0.129685 -0.016096 -0.122425 -0.014649 -0.016621 -0.030298 -0.266023 -0.406298 0.116543 -0.215170 -0.157276 0.025190 -0.289536 -0.174111 -0.246106 0.285857 0.152960 0.136272 0.081891 -0.055338 -0.117736 -0.168057 0.047939 -0.069417 0.188208 0.094567 0.073733 0.129721 0.119809 -0.101281 0.145958 0.127514 -0.164129 -0.064646 0.156037 0.324655 0.190514 0.116078 0.032397 0.017683 -0.195197 -0.069993 -0.021675 -0.122060 -0.026880 -0.173421 0.028876 0.074905 -0.015241 0.195618 -0.010185 -0.361134 -0.271959 -0.080586 -0.061131 0.179904 -0.129640 -0.109929 -0.034901 -0.026768 0.197703 0.200337 0.076536 -0.045512 -0.213775 -0.035090 -0.267710 -0.214561 -0.067109 -0.371767 -0.125657 -0.025492 -0.022085 0.072650 -0.007838 0.537976 0.141868 -0.164137 0.122195 0.118828 0.011863 -0.025231 -0.229644 -0.028073 0.202371 -0.122219 0.119056 0.028672 -0.087552 0.107031 0.196277 -0.227890 -0.034216 0.170374 0.003182 -0.410763 -0.014257 -0.334883 -0.104054 0.049695 0.155700 -0.084474 -0.083243 0.290987 0.048677 0.307489 0.233074 0.389735 0.407637 0.107782 0.036768 -0.293778 0.274940 0.078110 0.194336 0.304010 0.251294 0.095307 -0.035102 -0.286733 0.042387 -0.035499 -0.165699 0.314256 0.133686 -0.100705 0.049199 -0.260799 0.004708 -0.344764 0.058420 -0.053526 0.061520 0.143320 -0.582553 -0.181417 -0.069254 0.187069 -0.102824 0.456178 0.165571 -0.296009 0.550163 -0.118346 -0.105371 0.093871 -0.339303 -0.067747 -0.416442 -0.115805 -0.062718 -0.278729 0.330051 -0.131536 0.001205 -0.392196 -0.173456 -0.058554 -0.124640 0.127179 -0.124748 0.075863 0.130250 0.056210 -0.104911 -0.221532 -0.159160 0.492241 0.206452 0.197812 -0.081569 -0.374959 -0.385688 -0.131473 -0.032570 -0.297819 0.030892 0.030737 -0.125734 -0.099897 -0.079172 0.029272 0.307832 0.165943 0.365446 0.227309 0.338886 -0.086182 -0.015459 -0.301483 -0.180492 0.223841 -0.219542 -0.208125 -0.050629 0.102406 -0.150709 -0.080911 -0.015282 -0.073160 -0.123380 -0.213693 0.071478 -0.084323 0.024688 0.017427 0.014246 -0.176643 0.009829 0.225127 0.052014 -0.022202 0.207689 0.187331 0.009681 0.187247 -0.258818 0.458884 -0.351685 -0.139257 0.049705 -0.171458 0.262438 0.302826 0.238792 -0.081670 -0.142172 -0.028337 -0.050238 -0.030950 -0.124444 -0.039774 0.172651 0.499903 -0.193377 -0.305558 0.224234 0.055608 0.359257 0.215547 0.003843 -0.148114 -0.333863 0.015933 -0.021669 -0.194123 0.033884 0.009637 -0.517594 -0.144771 -0.019936 0.252326 0.015473 -0.308620 0.208281 0.266623 0.046452 -0.397560 -0.200783 -0.130444 0.326028 0.109688 0.175881 -0.214417 0.090510 -0.026184 -0.135311 -0.152651 0.194937 -0.153299 0.096855 -0.123013
OperationalError 0.030061 -0.104092 -0.167715 0.055536 -0.064794 0.213130 -0.008182 -0.428331 0.085063 -0.082424 0.140514 0.061338 0.219560 0.308193 -0.131157 -0.165441 -0.059594 -0.056753 -0.062183 -0.054781 0.004460 -0.169285 -0.138084 0.315076 0.012930 0.067891 -0.012553 -0.308512 -0.028804 -0.294532 -0.048531 0.124096 0.016795 0.150319 -0.041795 -0.211514 -0.008782 -0.067157 0.043124 0.275670 -0.573007 -0.320786 -0.143798 0.256391 0.060673 0.181377 -0.127097 0.052216 -0.065297 0.078629 0.201046 0.076025 0.455914 -0.117283 0.137913 0.254277 0.007457 0.006201 0.400996 0.072024 0.059771 -0.123891 -0.113047 0.302009 -0.074158 -0.137256 0.162918 -0.296508 -0.079698 -0.297170 0.215807 0.083355 0.051805 0.279477 0.151562 -0.178487 0.051494 -0.171218 0.099741 -0.282060 -0.102653 -0.057559 -0.107526 -0.043259 0.241615 -0.160018 0.180551 0.291219 0.017619 -0.104359 0.336227 0.092787 0.040214 -0.032753 -0.067469 0.008582 -0.206569 -0.153497 -0.000637 0.113057 0.089273 -0.190040 -0.226942 0.164451 -0.237592 0.034047 -0.165895 0.081922 -0.202007 -0.210782 -0.079500 -0.104303 0.091437 -0.100676 0.188836 -0.042095 -0.028060 0.174076 0.222356 -0.268030 0.084758 0.173023 -0.043300 -0.205804 -0.182958 -0.091380 -0.017208 -0.509626 0.296734 -0.118182 0.055283 0.084395 0.155304 -0.041672 0.161278 0.048676 0.082472 0.437661 0.012594 -0.297598 0.249695 -0.196096 -0.073482 -0.060880 0.216047 0.189206 0.000222 -0.073779 -0.121592 -0.296340 0.133755 0.220407 0.413162 0.189987 -0.142744 -0.044648 -0.324646 -0.307806 0.170923 -0.136781 -0.178291 0.018817 0.116827 0.189002 -0.204052 -0.103915 0.028343 0.325367 0.116398 -0.083615 0.262606 -0.036057 -0.078630 0.328899 -0.041711 0.033768 -0.401483 0.082642 -0.129155 0.054741 0.032905 0.305119 0.234078 -0.411842 0.229425 -0.161657 -0.102663 -0.064975 -0.102068 0.038163 0.079513 -0.005832 -0.052689 0.113644 -0.118873 0.113615 0.032145 -0.109297 -0.239569 0.015149 -0.063642 -0.267306 -0.146977 -0.029660 0.133212 0.294259 -0.035706 -0.080009 -0.069763 0.207529 0.074890 0.057732 0.038939 0.117800 0.249567 -0.140326 -0.239421 0.113703 -0.126995 0.364550 0.227880 -0.187764 0.102535 -0.030696 0.029231 0.013184 -0.026454 -0.004795 0.006378 -0.417470 0.049577 -0.111991 0.013816 -0.351355 0.114138 -0.169486 -0.170641 0.196781 0.021051 0.308384 0.087195 -0.124778 -0.202151 -0.156121 0.036443 -0.197687 -0.020611 -0.421321 -0.002384 -0.229131 0.106911 -0.348140 0.048166 -0.157402 0.147137 0.123855 -0.030198 0.049964 0.237531 0.116733 0.172011 0.162394 0.177848 -0.162283 0.120284 -0.013227 0.086697 0.149427 -0.045694 0.173923 0.045296 -0.152993 -0.189730 -0.303986 0.054965 -0.285330 -0.075156 -0.270756 -0.099269 0.052636 0.046995 -0.449698 0.280423 -0.145197 0.067078 -0.038941 0.129375 -0.007429 0.090755 0.006824 -0.224851 -0.292639 0.109672 0.032272 0.082653 0.024134 0.135785 -0.324240 -0.203336 -0.127531
from 0.000968 0.256335 -0.000854 -0.019667 -0.222241 -0.278350 -0.011746 -0.031846 0.018616 -0.015197 -0.077119 -0.431458 -0.176643 -0.211324 -0.050168 0.087193 0.144526 -0.282974 -0.119833 -0.037064 -0.061266 0.294345 0.235405 -0.087812 0.141225 0.098974 0.049535 0.189939 -0.101835 0.245952 -0.122175 -0.135426 0.123370 -0.019964 0.071883 -0.307123 -0.012041 -0.294003 0.020071 -0.238122 0.322888 -0.290453 -0.200912 0.170600 0.082025 0.085925 0.156984 0.087952 -0.348085 0.008099 -0.014152 0.361221 0.112505 -0.142647 0.014806 -0.134560 0.078660 0.054918 -0.332622 -0.120280 -0.006789 0.082769 0.113067 0.269710 0.216421 0.302002 -0.135762 0.416925 0.100043 -0.048996 -0.176408 0.046202 -0.397547 -0.129533 -0.327517 0.187862 -0.004569 0.001907 -0.114057 -0.217207 -0.292787 -0.295746 -0.007733 -0.233161 -0.408122 -0.045599 0.020486 -0.382156 0.022260 -0.246291 0.043053 0.207511 -0.086957 -0.329015 -0.046960 -0.056295 -0.170064 0.147976 -0.232104 -0.089694 0.137495 -0.060903 0.251884 -0.067657 -0.054163 0.259559 -0.012744 0.112888 0.004883 0.153381 -0.086496 0.324988 -0.156144 -0.158925 -0.149114 -0.073196 0.155906 0.027046 0.331000 0.268181 0.063523 0.260712 0.056680 -0.517191 -0.156756 0.225404 0.214662 0.128661 -0.407526 -0.364764 -0.055120 -0.162553 -0.274133 -0.026444 -0.000773 -0.180259 -0.325433 -0.345737 0.381323 -0.045503 -0.004444 0.257969 0.142220 0.342189 0.184349 0.178089 0.153672 -0.097425 -0.028815 -0.044713 -0.176582 -0.026856 -0.307770 -0.251879 0.080931 -0.106500 0.129809 -0.292057 -0.220497 -0.187090 0.301586 0.187223 -0.387348 -0.245124 0.000233 -0.032321 -0.419754 -0.486333 0.326998 0.198656 -0.152482 -0.183295 -0.104023 -0.363899 0.167580 0.047667 0.037738 0.354156 -0.164549 -0.121781 0.110014 -0.196348 -0.276633 0.118780 0.127106 0.252786 0.165953 -0.298349 0.034969 -0.263045 0.053028 0.057538 0.053826 -0.291134 -0.144211 0.116607 -0.374748 0.264008 -0.012153 -0.218216 0.263226 0.112900 0.196416 -0.196896 -0.103152 0.049400 0.199799 0.126811 -0.140093 -0.117423 0.154026 0.083942 0.023342 -0.260063 0.079192 0.098199 0.115529 -0.223352 -0.057408 -0.372032 -0.007008 0.313662 -0.059820 0.306792 -0.254914 0.195884 0.006067 -0.205575 -0.146044 0.261726 0.428861 0.009354 -0.104607 0.415373 0.108197 0.222051 -0.128168 -0.246672 -0.072456 -0.289056 0.065576 0.507603 0.377293 -0.249430 0.141493 0.290028 -0.314693 0.379629 -0.063723 -0.055582 -0.010433 0.471135 0.229007 0.257109 0.141508 -0.159871 -0.027344 -0.369045 -0.048018 -0.100505 0.160123 0.313752 -0.467268 -0.129226 -0.031743 0.037928 -0.169759 -0.195779 0.299932 -0.440365 -0.156047 0.191728 -0.018570 -0.144990 0.470492 -0.065301 -0.068854 0.315234 -0.263828 -0.137483 -0.035022 0.375511 -0.071541 0.198493 -0.123062 -0.118603 -0.373872 0.076569 0.361694 -0.287125 0.020837 0.045172 -0.088282 0.119321 -0.301739 -0.138538 -0.189784 0.062801 0.088321 0.128475
of 0.139747 0.042391 0.098074 0.028520 0.095583 -0.075284 0.194757 0.502663 -0.372149 0.192401 -0.173847 0.196151 -0.159156 0.000749 -0.132305 0.327680 0.289363 0.090536 0.023995 0.010246 0.065843 0.396201 -0.028998 0.021166 -0.094802 0.118133 0.038472 -0.040568 -0.296602 -0.055732 0.045061 -0.019993 -0.324597 -0.051416 0.213997 0.155303 -0.038071 0.049335 0.340822 -0.140190 0.154310 0.072834 -0.021198 -0.193667 0.105974 0.114795 0.104982 -0.238941 0.156622 0.125218 0.181230 0.137282 -0.281880 -0.156055 0.373528 -0.527747 0.171619 -0.177460 0.115594 0.246588 0.077489 0.031548 0.017507 -0.354902 0.179599 -0.146267 -0.267655 -0.044689 -0.010764 0.045262 -0.050959 -0.016470 0.249473 0.004257 -0.213856 0.191012 -0.499991 -0.121537 -0.262691 0.437633 0.176389 0.399502 -0.021603 -0.051388 0.008181 0.368890 -0.164483 0.120178 -0.164658 0.275401 0.150425 0.293686 0.316025 0.384996 -0.253449 0.275171 0.208339 -0.105983 0.101322 -0.023691 -0.161460 0.139328 -0.189076 -0.088513 -0.068337 -0.233161 0.521334 -0.014402 0.279743 0.244953 0.036836 -0.087004 0.003162 0.066027 0.145428 0.228779 0.322403 -0.046795 -0.105595 0.388737 -0.134691 -0.048755 -0.086609 0.279798 0.217808 0.054953 -0.096201 0.078217 -0.229112 -0.141977 0.022509 -0.192179 -0.143033 0.383696 0.173043 0.083948 0.173550 0.032535 0.098183 0.153684 -0.290218 0.033468 0.213121 0.076766 -0.155647 -0.318892 0.056027 0.219991 -0.017656 0.280424 0.221724 -0.144237 0.321956 -0.128502 -0.009905 0.017667 0.237384 0.005690 -0.309754 -0.050383 -0.293249 0.137302 -0.063798 0.515663 0.124882 0.154801 -0.000513 -0.248506 -0.158980 -0.304005 0.065389 -0.187564 0.191295 0.009759 -0.018440 0.069716 0.113806 -0.011097 0.367666 -0.111702 -0.140951 0.086926 -0.078717 0.377834 -0.326138 0.059587 0.128347 0.455093 0.078863 -0.011353 -0.201136 0.070892 0.331511 0.129655 -0.123213 -0.024313 -0.017957 0.028667 0.422109 0.170688 0.285935 -0.107989 0.186757 0.456029 -0.188983 -0.054812 -0.257299 0.165483 -0.216834 -0.174800 -0.032625 -0.091498 0.049756 -0.108558 0.203987 0.167672 0.463071 0.551925 0.318596 0.052049 0.147758 0.189686 -0.230289 0.268287 -0.015335 -0.037799 0.145615 -0.047567 0.054293 0.672782 -0.187710 -0.065354 -0.418378 -0.016140 -0.037124 -0.366400 0.151980 -0.111482 0.025739 0.071854 -0.383581 -0.113394 -0.195573 0.473439 -0.009511 -0.094791 0.190076 -0.208205 0.213395 0.197038 -0.135104 0.208227 0.033281 0.190628 -0.576481 -0.192819 -0.245169 0.106124 -0.520420 0.191159 -0.319133 -0.081208 -0.089409 -0.022768 -0.013039 -0.175608 0.301447 0.070611 -0.192322 0.108626 -0.144596 0.219075 0.197433 0.225488 -0.083975 0.398720 0.292487 -0.338357 0.180154 -0.071837 0.052796 -0.209538 -0.284364 0.142677 -0.156803 0.171005 0.151948 0.134170 -0.306847 0.432941 0.024891 0.111336 -0.067300 -0.119351 0.178391 0.283637 -0.192364 0.345487 -0.084105 -0.076902
read 0.143870 0.117247 0.141350 0.086399 -0.168398 0.135938 0.126467 -0.072619 0.096343 -0.024665 -0.138089 -0.067558 -0.147821 0.025870 -0.146369 0.013010 0.127844 -0.000992 -0.207326 -0.049554 -0.317635 0.064118 0.052092 -0.096811 -0.092988 0.192342 0.022906 -0.184633 0.047165 0.010204 0.081239 0.099542 0.101772 0.152093 0.071160 0.107930 -0.118582 0.021782 -0.152879 0.021888 -0.285202 -0.107354 0.036367 0.024643 0.216051 -0.073477 -0.088024 0.104599 -0.281274 0.046292 -0.047226 0.101030 -0.223447 -0.234802 0.025278 0.183704 -0.252600 0.048864 -0.120599 -0.352800 0.239198 0.142530 0.035982 -0.271383 0.102265 -0.322746 -0.037192 0.164387 -0.067000 0.012030 0.070849 0.042381 -0.062843 -0.363950 -0.067158 0.078968 0.108943 0.193303 -0.041182 -0.099286 -0.038565 0.355287 -0.008389 0.289204 0.098882 -0.265479 0.351952 -0.025743 -0.213137 -0.107328 0.089875 0.008217 0.244830 -0.125315 0.243072 0.344299 -0.284936 -0.012559 -0.089658 0.058611 -0.067101 0.010328 -0.161057 0.157997 0.077767 -0.016172 -0.124829 0.000985 -0.152544 -0.003309 -0.005478 -0.136426 -0.014587 0.267841 0.119584 -0.168199 -0.181043 -0.182324 -0.020742 0.012277 -0.072130 -0.039281 -0.069603 0.269688 0.079057 0.120725 -0.146794 0.264736 0.286695 0.178347 -0.017483 -0.179545 0.014965 0.040465 -0.157515 -0.207367 -0.004074 0.027374 -0.065316 0.128072 0.234238 -0.178996 0.160921 -0.311395 0.167918 0.338668 -0.059698 -0.075337 -0.056431 -0.179230 -0.242797 -0.350237 -0.082352 0.181497 0.033627 -0.522147 -0.066499 0.040004 -0.093665 -0.041342 -0.026817 -0.065614 0.316854 0.236570 0.147189 0.131704 -0.246139 -0.153894 0.068031 0.000194 -0.265086 0.013076 0.008326 -0.073368 0.073296 -0.085665 0.276844 0.170650 -0.329613 0.331124 -0.109231 -0.018649 0.006361 0.250436 0.030417 0.182978 0.236361 -0.090711 -0.105348 0.119979 0.144265 0.103667 -0.262048 -0.124942 -0.201912 0.244879 -0.257262 0.378359 -0.153585 0.024138 0.336009 -0.299846 0.118259 -0.272740 0.057360 0.199832 0.222261 0.025023 -0.204740 0.136240 0.106929 -0.229634 -0.134832 -0.077845 -0.143205 -0.003935 0.010869 -0.263401 -0.340129 -0.068005 -0.127408 0.138107 -0.295457 0.304127 -0.249025 0.002748 0.018082 -0.083850 -0.215711 -0.241292 0.260682 0.119006 0.205962 0.122253 0.267007 0.236335 -0.034303 0.092823 -0.146325 0.104431 -0.064242 0.008891 0.114646 -0.087661 -0.259102 0.071108 0.141363 0.154157 0.087303 0.128955 -0.188837 0.054078 0.104532 0.102067 0.170280 0.120639 0.096842 -0.078955 0.148330 0.130400 0.253937 -0.007168 -0.174982 0.008779 -0.397516 0.000463 -0.420085 0.044872 0.478975 -0.141066 0.284990 -0.137386 0.089213 0.177466 0.187993 -0.275090 0.134515 0.182515 0.290103 -0.085632 -0.058744 0.196815 0.079165 -0.004499 -0.127318 0.063821 0.127969 0.080325 -0.187977 -0.362765 0.337531 0.000227 -0.019373 0.032099 -0.162746 0.399850 0.138520 0.038787 0.286882 -0.064026
value 0.299833 0.214485 0.288043 0.408521 -0.281030 -0.298735 -0.002742 0.061770 0.189649 0.179294 0.032650 0.025822 -0.065140 -0.066817 -0.457035 -0.131724 0.121430 -0.370968 0.328972 0.036514 0.410331 0.321175 -0.048849 0.211908 -0.162820 -0.131560 0.030926 0.190863 -0.114897 -0.078565 0.136456 -0.065845 0.212003 0.213535 0.263382 0.125889 -0.177732 -0.092580 0.038646 0.224653 0.127177 -0.070020 -0.108117 0.160402 0.210623 0.191957 -0.157142 0.141775 -0.410298 0.201694 -0.266059 0.411613 0.012683 -0.242597 0.084699 0.174236 -0.163432 -0.237533 -0.445512 -0.235827 0.078653 0.266348 -0.216542 0.147622 -0.275412 0.094619 0.144207 -0.037458 0.240976 -0.294949 -0.008288 0.033631 -0.433994 0.289510 -0.162285 0.088985 0.261121 0.020244 0.157200 0.120756 0.119064 -0.145299 0.056162 -0.157788 -0.001580 -0.016753 0.340651 -0.201971 -0.187938 -0.293637 0.181293 0.091073 0.329148 -0.306792 0.173328 0.236854 0.155367 0.526218 -0.051570 0.158690 0.004357 -0.494998 0.158244 0.021821 -0.178587 0.085775 -0.324602 0.073314 -0.289416 -0.029688 0.133656 -0.046008 0.008695 0.149992 0.216177 0.285621 -0.072499 0.035474 -0.000008 -0.300425 0.121326 0.095571 -0.056223 -0.263000 0.029838 0.248045 0.095100 -0.121884 -0.080221 0.097290 -0.185329 -0.260593 -0.095356 -0.132615 -0.201123 -0.368629 -0.380829 -0.002491 0.251008 -0.176850 0.132090 0.071530 0.291441 -0.389525 0.368297 0.254810 0.039080 -0.119491 -0.287819 0.094829 0.049583 -0.184071 0.000848 0.227896 -0.157595 0.086699 0.020530 -0.015628 -0.084179 0.003329 0.006487 -0.172028 0.108110 0.222867 -0.272528 -0.351869 -0.072839 -0.043047 0.365259 0.273059 -0.070848 -0.148153 0.019144 -0.218868 0.269226 -0.055865 0.188590 0.184839 -0.199630 0.096475 -0.098267 0.239159 -0.103312 0.183951 0.376957 0.179016 0.093985 -0.430892 0.163559 -0.126006 0.113379 0.118782 -0.119593 -0.184881 -0.085229 -0.279026 -0.420739 -0.026514 -0.065175 0.262797 0.209844 -0.146589 0.117420 0.004100 -0.001027 0.311923 0.349127 0.302650 -0.165778 0.242941 -0.108331 -0.066909 -0.054543 -0.380753 0.268656 -0.214992 -0.127461 -0.055593 -0.024424 -0.130275 0.321901 -0.198059 0.177634 0.029229 -0.153865 -0.038560 0.189601 -0.053600 0.026927 -0.432261 0.213951 0.108369 -0.106079 0.217449 0.194045 0.192508 -0.169475 0.053147 0.088407 -0.408819 0.158411 0.311226 0.208804 -0.184145 0.540749 -0.190502 0.216362 -0.047249 -0.090415 -0.010079 -0.249328 0.071375 -0.084247 0.366958 0.271916 0.022463 0.183872 -0.250007 0.145552 0.368988 0.301739 -0.061533 -0.307522 0.148551 0.009742 0.059895 -0.260335 0.003632 0.266519 -0.166582 0.187983 0.037240 -0.142543 0.022051 0.429573 -0.311147 0.245818 0.223976 -0.379928 -0.174912 0.096777 0.224497 0.156392 0.087537 -0.291852 0.117099 -0.311364 -0.062682 0.315132 -0.156967 -0.116534 -0.060383 -0.286580 -0.176691 -0.040505 0.103234 -0.189585 -0.052645 0.096698 0.364790
Errno 0.032307 0.126265 0.263970 -0.266423 -0.150044 -0.079641 0.111909 0.107926 0.049476 -0.195216 0.036084 -0.027121 0.134707 -0.241488 0.256900 -0.153498 -0.150611 0.173066 0.104323 -0.147519 -0.001867 -0.033333 -0.089680 -0.055632 -0.039963 0.140566 0.151334 -0.222480 0.060395 0.202878 -0.296741 0.201919 -0.154050 0.106805 0.229792 0.077589 0.290222 0.042764 -0.050598 0.153866 0.227867 0.276783 0.005579 0.272308 -0.203524 -0.261433 0.153675 -0.276524 0.019452 0.240901 -0.025093 -0.213750 -0.137274 0.532136 0.209837 0.009131 -0.159831 -0.171824 0.099268 0.017917 0.031764 -0.160723 0.128765 -0.059681 0.123007 0.138641 0.035157 0.295850 -0.147738 -0.105106 -0.090578 0.201420 -0.340595 0.141050 -0.169491 -0.021769 -0.095653 -0.196797 -0.086757 -0.029767 0.012167 0.023834 -0.183951 -0.144218 0.013698 0.163220 -0.314528 -0.540269 0.078129 -0.136171 -0.247381 -0.292453 -0.280528 -0.104348 -0.009712 -0.133337 -0.175105 -0.329210 -0.255890 0.052592 -0.205082 0.092478 0.388269 0.039201 0.132287 -0.058195 0.009052 0.102335 0.116257 0.152068 -0.068753 0.172239 0.277543 0.218017 -0.294210 0.124240 0.375042 0.004408 0.128907 -0.015600 0.126687 -0.234313 0.037007 0.122905 -0.192344 0.032430 -0.043042 -0.278346 -0.408348 0.244352 0.233313 0.198099 0.023568 0.078499 0.136664 0.050613 0.117804 -0.076429 0.225313 -0.114567 -0.058497 0.224031 -0.050594 -0.270216 0.009686 -0.348257 0.195802 -0.135743 0.423777 -0.084500 0.101866 0.110646 0.107803 0.024723 -0.271711 -0.132009 0.020943 0.191204 0.339115 0.196038 -0.112445 0.144385 -0.179818 -0.222246 0.050433 0.208542 0.398784 0.214227 -0.016029 0.143387 0.045743 -0.316448 -0.083721 -0.291788 -0.200043 0.120771 -0.062007 -0.146270 -0.090245 -0.208582 0.446573 -0.140169 -0.359724 -0.009780 -0.215217 -0.280547 -0.057300 -0.216383 0.048571 -0.073533 -0.297177 -0.220929 0.051965 -0.061649 0.105906 -0.135945 0.053912 0.196978 0.067162 0.237375 -0.126988 0.168244 0.033520 0.224187 -0.113202 0.039793 -0.159698 0.350869 -0.200209 -0.203758 0.145468 0.355667 -0.145765 0.070082 0.099899 -0.093167 0.055852 -0.247510 0.022154 0.370369 -0.071899 -0.188117 -0.076936 -0.142540 -0.137472 -0.049660 -0.061618 0.238077 -0.067870 -0.262013 0.048778 -0.073150 0.018034 -0.127914 -0.236662 -0.369977 0.096863 -0.047273 0.156334 0.134441 0.363187 0.120342 -0.004870 0.000815 -0.001266 0.103987 -0.162488 0.082623 0.112518 0.028958 0.046020 0.391081 0.031118 -0.207820 -0.053228 0.145289 0.235487 -0.029776 -0.031306 -0.051910 -0.020388 -0.145490 0.270846 -0.252384 0.016580 -0.276723 0.106618 -0.068076 -0.406252 -0.076135 0.079371 -0.017010 -0.054518 -0.010044 -0.249211 -0.160531 -0.134176 -0.061114 -0.051217 -0.053458 0.062858 -0.002086 0.352125 -0.136374 -0.324144 -0.083345 0.137783 -0.251492 0.104181 -0.189560 -0.039044 0.151104 -0.088568 -0.226059 0.213907 -0.088318 0.046296 -0.351387 -0.191392 0.027466
aborted -0.202770 -0.075507 0.549727 -0.273777 0.040000 -0.247148 0.021470 0.041619 -0.045704 0.136021 -0.032519 -0.006604 0.218522 -0.186450 0.068074 -0.393489 -0.034505 0.191362 0.005141 -0.219252 -0.056623 -0.386152 0.028804 -0.061358 0.011136 -0.071630 0.108849 0.079209 0.235207 -0.002375 -0.263264 0.033776 0.158105 0.032247 0.185007 0.030073 0.323849 0.004451 -0.102167 0.136953 0.309519 0.308110 0.054147 0.036595 -0.336815 -0.368555 0.250248 0.082801 -0.054031 -0.034010 0.042455 -0.229610 -0.078314 0.415017 -0.228091 0.132998 -0.319182 0.086839 -0.159041 -0.031294 -0.118503 -0.126936 -0.012298 -0.069520 0.005352 0.439546 0.283967 0.143027 -0.140224 -0.155164 -0.210896 0.234905 -0.300454 0.211127 -0.088897 -0.274032 0.113319 0.022389 0.266245 0.094969 -0.012912 -0.415949 -0.043757 -0.235453 0.088601 0.062929 -0.200505 -0.363793 0.109279 0.060260 -0.309405 -0.503405 -0.190932 -0.261542 0.053325 -0.256463 0.052356 -0.015423 -0.359972 0.005882 -0.149831 0.142267 0.170710 0.192366 0.058746 0.204027 -0.001110 0.304978 -0.230264 0.183326 -0.167197 0.269936 0.497365 0.282865 -0.310211 0.083036 0.098161 -0.141806 0.066952 -0.023251 0.205097 -0.301269 -0.213359 -0.221903 -0.232920 -0.179183 0.224600 0.017890 -0.360219 0.378334 0.044503 0.200311 -0.074193 -0.244482 -0.118695 0.043758 -0.292629 -0.199821 0.049613 -0.054774 -0.133672 0.450164 0.118838 -0.046258 0.354625 -0.229765 -0.031554 -0.264869 0.430909 0.225196 0.100078 -0.042606 -0.013013 0.296739 -0.041385 -0.188760 0.141152 0.099331 0.250675 0.138203 -0.028648 0.116594 -0.253796 -0.115843 -0.047879 -0.037432 0.191736 0.167817 -0.053620 0.078180 -0.047586 -0.184665 0.062216 -0.389012 -0.215590 0.147883 -0.053685 -0.181289 0.045399 -0.058505 0.227597 -0.176246 -0.459414 0.150946 0.061027 -0.156689 -0.146699 -0.247196 -0.100376 -0.014102 -0.200124 0.027827 -0.083382 -0.036492 -0.036744 -0.062078 -0.108784 0.230498 -0.107879 0.094762 0.003733 0.045379 -0.226477 -0.029727 -0.175197 0.098284 0.047380 0.181066 0.001679 -0.101436 0.224267 0.350854 0.083670 -0.040724 -0.124315 -0.010328 -0.078575 -0.723179 -0.279806 0.158485 0.091046 -0.237810 -0.047583 -0.113306 -0.237940 0.075427 -0.210861 0.242341 -0.071016 -0.311653 0.069261 -0.112456 0.192979 0.324158 -0.028479 -0.103588 0.109935 0.050935 0.171764 -0.087387 0.320776 0.184533 0.040888 0.090879 0.041008 0.127028 -0.025900 -0.034937 0.131214 -0.047595 -0.130476 0.413419 0.042296 0.066857 -0.126868 0.199924 0.091348 -0.004115 0.024344 -0.228805 0.016043 -0.167008 0.168003 0.043924 -0.058980 -0.159575 -0.087874 -0.016799 -0.243261 0.059465 0.135691 -0.279509 -0.061061 0.085723 -0.154924 -0.117646 -0.169314 0.087985 -0.082473 -0.004000 0.270393 0.292795 0.469770 -0.146053 -0.053374 0.190661 -0.110461 -0.253139 0.190342 -0.369300 -0.108734 0.187699 -0.416424 0.013065 0.125391 -0.184472 0.091983 -0.330510 0.018453 0.236619
by -0.011766 -0.027725 -0.123678 -0.080629 0.009079 0.064239 0.201497 0.022350 0.239293 0.008363 0.147960 0.483653 -0.184507 -0.093019 -0.082663 -0.339314 0.099252 -0.342136 0.056271 0.058910 0.314988 -0.140893 -0.282659 0.156663 0.056698 -0.541466 0.013016 -0.012787 0.328110 -0.125408 0.224245 -0.045137 -0.220931 0.235504 -0.208829 0.232006 0.045144 0.286933 0.091246 0.127789 0.040623 0.219385 0.050235 0.019215 0.256456 -0.016170 -0.308129 0.193934 0.160247 -0.008265 -0.198532 -0.079982 0.406884 0.265135 -0.079972 0.083821 0.038676 -0.204053 -0.245393 0.264255 -0.037305 0.154870 -0.041661 -0.001112 -0.848483 0.389275 0.132289 -0.246888 -0.066216 -0.119598 0.225487 -0.040919 -0.236445 0.044694 0.383982 -0.060061 0.322833 -0.001115 0.431768 0.352231 0.514707 -0.321549 -0.104875 -0.129250 -0.018825 -0.051223 -0.198218 -0.063266 0.046410 0.017372 -0.094553 -0.169439 0.017796 -0.035157 0.049543 -0.265107 0.388033 0.261868 -0.100745 -0.166208 -0.082945 -0.318644 0.150544 0.151543 -0.050620 -0.139671 -0.087207 0.110684 -0.401636 -0.250758 -0.182750 -0.201496 0.237588 -0.129392 0.182302 -0.009121 -0.046183 -0.031474 0.007499 -0.422119 0.182654 0.040999 0.020860 -0.259719 0.213154 0.175515 0.057599 -0.239865 -0.072155 0.048724 -0.076981 0.349341 0.321019 0.002649 -0.282970 -0.079792 -0.113648 -0.078238 -0.324959 -0.112145 -0.226242 -0.169189 -0.066505 -0.082914 0.119585 -0.087025 -0.119426 -0.208034 -0.246809 0.186049 0.132036 0.016779 -0.268159 0.006978 0.096941 0.132415 -0.281842 -0.014037 0.199550 0.296236 0.059085 -0.176285 0.393531 0.201881 -0.230535 -0.347569 0.493980 0.193846 -0.312711 0.101577 0.377335 0.123404 -0.089940 -0.211383 0.045114 -0.101943 0.201299 -0.290509 0.019455 -0.129187 0.125014 0.215567 -0.058442 -0.027847 0.208954 0.012538 -0.170108 -0.150856 -0.076766 0.061190 -0.070959 0.109223 0.006442 -0.169886 0.273594 -0.240581 0.213686 -0.297720 0.108527 -0.132516 -0.374421 -0.021727 -0.443880 0.307049 0.266998 -0.026972 0.122462 -0.376615 0.116024 0.009002 -0.379470 0.160411 -0.047157 -0.205231 -0.095753 -0.177425 -0.223791 0.045782 0.069110 -0.234574 -0.042896 -0.451881 0.347190 -0.558832 -0.086517 -0.117445 0.257015 0.229834 0.483702 -0.125661 -0.197398 0.188428 -0.163926 0.236071 0.096392 0.175141 0.211533 0.282651 0.319004 -0.293183 0.203055 -0.143424 0.054606 -0.138421 0.399486 -0.015753 0.255898 0.083061 0.000276 -0.057933 -0.105059 -0.215526 -0.356760 0.135246 0.242170 -0.151553 0.180149 -0.202822 0.183166 0.277042 -0.084089 -0.074370 0.250912 0.228692 0.054274 0.031283 -0.263160 0.207837 -0.097624 0.101838 0.169983 -0.138155 -0.152042 -0.138600 -0.239510 0.009459 0.011387 0.272672 -0.030812 0.249409 0.198086 -0.026496 0.266902 0.101119 0.172293 0.172549 -0.210291 -0.114658 0.262316 0.046738 -0.186059 0.047697 -0.036037 -0.241527 0.327731 0.080971 -0.110557 -0.170777 0.040884 0.032872
